2184 50
</s> 0.008005 0.008839 -0.007661 -0.006556 0.002733 0.006042 0.001882 0.000423 -0.007207 0.004437 -0.008713 0.002499 -0.001503 -0.001914 -0.006631 -0.003764 0.005159 0.006051 0.005938 0.003195 0.003090 -0.007605 -0.008192 0.009939 0.007603 0.006180 -0.001208 0.008031 -0.000990 0.001469 -0.000298 -0.005966 0.002625 -0.002675 -0.007651 0.009508 0.008759 -0.002190 -0.000452 0.001018 -0.007275 -0.008014 0.009109 0.000126 -0.005165 -0.006084 -0.006153 0.003394 0.000403 0.002662 
, -0.130338 -0.247630 -0.089837 -0.188535 0.233505 -0.208379 0.736228 -0.241975 -0.153298 -0.163632 0.535429 0.454825 -0.628107 -0.079065 -0.076598 0.696001 0.223482 -0.222363 0.164893 0.593090 -0.265711 0.162570 0.015690 -0.474878 -0.398396 0.523445 -0.601134 -0.381573 0.064020 0.128643 -0.373209 0.236024 -0.519313 0.120998 -0.281388 0.592794 0.721700 0.327773 0.654171 -0.228472 -0.732347 0.426653 -0.585583 0.057690 0.393991 0.690607 -0.455936 -0.162660 -0.069805 -0.259941 
的 0.124017 -0.083105 0.313817 0.013922 -0.265372 -0.051662 0.694159 -0.089924 -0.311944 -0.174806 0.201416 0.247057 -0.291028 -0.026903 -0.080803 0.619951 -0.019489 -0.373355 0.434119 -0.044793 0.035094 -0.226697 0.106448 -0.613831 -0.137782 -0.068450 -0.482269 -0.157235 -0.047762 0.063576 -0.178281 -0.110501 -0.222527 -0.208591 0.081021 0.704109 0.353065 0.000670 0.723012 -0.419937 -0.580560 0.614835 -0.006778 -0.222243 0.176824 0.477797 -0.161190 0.192097 -0.251892 -0.669730 
。 -0.132393 -0.223822 0.072389 -0.250546 0.098326 0.015623 0.782484 -0.331016 -0.393644 -0.092203 0.379369 -0.016783 -0.265617 -0.324640 -0.295274 0.744097 0.174140 -0.244075 0.329783 0.429796 -0.091495 0.315085 0.137851 -0.518291 0.032490 0.199324 -0.345349 -0.530373 0.262829 0.107314 -0.088798 0.023014 -0.591693 -0.123985 -0.187947 0.363272 0.747656 0.291824 0.631513 -0.233115 -0.751972 0.717136 -0.167181 0.136274 0.501914 0.656716 -0.451953 -0.051781 -0.171621 -0.338305 
0 -0.460475 -1.478467 0.631557 -0.456104 -0.509881 0.045433 0.457323 0.214427 -1.924967 0.834596 0.667996 -0.058331 0.020487 -0.922895 -0.690386 1.037000 0.764991 0.156892 0.821329 0.999859 0.160447 0.416820 0.809960 -0.437417 -0.423006 0.413138 -0.672269 -0.531563 -0.798851 0.245406 -0.091931 -0.439013 -0.993723 0.552406 -0.452227 -0.848558 0.114742 -0.051664 1.160872 -0.492219 -0.751656 1.027332 0.522072 0.096071 0.780587 1.406105 -0.501826 -0.056699 0.199974 -0.036819 
国 0.325820 0.270581 0.611011 -0.193927 0.323597 -0.024576 0.853850 -0.617690 -0.391898 0.314704 -0.264137 -0.368942 -0.094511 0.101256 0.026824 0.377623 0.143317 -0.659735 0.585584 0.137652 0.043018 0.271899 0.120401 -0.623810 0.334179 -0.357974 -0.704750 0.080345 -0.028180 0.254438 -0.094062 -0.047811 -0.278139 0.301300 0.157961 0.770558 0.779523 -0.307653 1.033243 -0.255126 -0.678798 1.020073 0.243018 0.111346 0.498782 0.248294 -0.742748 0.115491 -0.660536 -0.569394 
在 -0.288519 0.148989 0.252080 -0.202501 0.099329 -0.359033 0.705618 -0.297231 -0.042397 -0.047984 0.468193 0.290119 -0.237476 -0.261641 -0.239685 0.634228 0.439087 -0.423414 0.409000 0.522220 -0.052561 0.012148 -0.079007 -0.720954 -0.427024 -0.100093 -0.822382 -0.281575 0.073195 0.205738 -0.381142 0.200401 -0.631587 -0.064731 -0.352443 0.468485 0.256549 -0.073449 0.785756 -0.416407 -0.201058 0.354219 -0.296173 0.108918 0.300434 0.251566 -0.173485 0.039517 -0.465661 -0.593615 
一 -0.367364 0.175599 0.291192 -0.045509 -0.049732 -0.144964 0.657405 0.078601 0.334575 -0.174221 0.515724 0.571884 -0.430557 0.108989 -0.160550 0.649203 0.212353 -0.304874 0.723599 0.236561 0.135820 -0.192972 0.055083 -0.819427 -0.459355 -0.147950 -0.565367 -0.381618 0.096830 0.091104 -0.320160 0.076035 -0.282493 -0.342563 -0.364855 0.668693 0.341721 -0.233164 1.120186 -0.318597 -0.368272 0.301122 -0.044686 0.377082 0.339684 0.103163 -0.123286 0.262473 -0.453314 -0.851409 
1 -0.379011 -1.345508 0.588945 -0.266224 -0.632729 0.178310 0.461895 0.259615 -1.912431 0.826290 0.756119 0.006915 0.052154 -0.899553 -0.579795 1.064206 0.616140 0.206823 0.753098 1.011412 0.175745 0.336233 0.834367 -0.523878 -0.393986 0.320197 -0.751247 -0.355566 -0.703276 0.242306 -0.101969 -0.519022 -0.990470 0.569986 -0.277308 -0.843486 0.089420 -0.105749 1.198355 -0.578445 -0.744374 1.044940 0.531135 0.012509 0.609264 1.260438 -0.478089 -0.048956 0.354349 -0.095801 
十 -0.364836 0.408344 0.563278 -0.019065 -0.143534 -0.177486 0.333780 0.401800 0.444995 0.015869 0.778344 0.197600 0.170079 -0.066537 -0.450076 0.616495 0.508610 -0.372308 0.920483 0.215961 0.402317 0.077122 0.873699 -0.923692 -0.271696 -0.203691 -0.427128 -0.695863 -0.016393 0.154124 -0.254031 0.071318 -0.389010 -0.349991 -0.904677 0.687403 0.329658 -0.352584 1.472563 -0.291308 -0.111628 0.511072 0.261324 0.507475 0.583116 0.174663 -0.274584 0.589993 -0.624620 -1.145117 
: -0.496807 -1.011915 0.458790 -0.828726 0.177431 -0.119770 0.475869 0.097153 -1.573773 0.655065 0.570412 0.007419 -0.275727 -1.396529 -0.505278 0.767069 0.947346 -0.209606 -0.252274 1.072064 -0.105529 0.428594 0.591870 -0.833256 -0.084836 0.489326 -1.063552 -0.891736 -0.661187 0.572302 -0.304812 -0.169239 -1.198300 0.473654 -0.580144 -0.801163 0.215234 0.144639 0.923941 -0.640744 -0.586745 0.455696 0.009275 0.593824 0.844006 1.496533 -0.563173 -0.620587 -0.151999 -0.148282 
人 0.143197 -0.227172 0.327803 -0.559926 -0.016666 0.072291 0.868514 0.071907 -0.165249 -0.151312 0.110608 0.064618 -0.657266 0.266754 -0.007789 0.358209 0.264677 -0.028527 0.793985 -0.111798 0.073393 0.432991 -0.072805 -0.794468 -0.486546 -0.182195 -0.118019 -0.536081 0.009020 -0.389428 0.131131 0.243244 -0.011123 -0.448500 -0.209701 0.764430 0.202716 0.496533 0.966127 -0.000736 -0.740949 0.440488 -0.312369 0.029015 0.452893 0.683122 -0.231055 0.325207 -0.518447 -0.478874 
中 -0.031528 -0.101473 0.204040 -0.375201 -0.062291 -0.142488 0.769668 -0.398488 -0.554962 -0.070522 0.154627 0.050095 -0.466190 0.090050 -0.472404 0.531437 0.333635 -0.154465 0.303219 0.350374 0.077362 0.001146 -0.048945 -0.417327 -0.243084 0.090774 -0.808834 -0.219949 0.079990 0.227826 -0.242221 0.261567 -0.514456 0.000133 0.203829 0.585359 0.593890 0.024730 0.923995 0.051088 -0.516955 0.753170 -0.225224 -0.013775 0.488211 0.410464 -0.439780 -0.266893 -0.268390 -0.459569 
会 -0.103365 0.133724 0.145597 0.132897 -0.494507 -0.113957 1.176648 -0.203822 -0.527328 -0.404244 -0.169681 0.230975 -0.142470 -0.414338 -0.613870 0.696927 0.524333 -0.563334 0.443667 0.255147 -0.025638 -0.252317 -0.404737 -0.385787 -0.474866 -0.405236 -0.835012 -0.036728 0.483219 0.213694 -0.445956 0.171936 -0.329127 0.113474 -0.051524 0.410786 0.466206 0.130108 0.705370 0.070938 -0.368513 1.178649 -0.307451 -0.475164 -0.073900 0.423466 -0.553436 -0.077229 -0.375399 -0.099368 
以 0.439792 -0.235583 0.095498 -0.091463 -0.078851 -0.303605 0.810103 -0.223620 0.029502 -0.147660 0.906930 0.422812 0.048749 0.129241 -0.144655 0.768371 0.654544 -0.312882 0.702121 0.615335 0.230369 0.351874 -0.044770 -0.127349 -0.794716 0.572878 -0.641346 -0.821629 0.348150 -0.204237 0.004219 0.193053 -0.339146 -0.022042 -0.257911 0.276998 0.119420 -0.060071 0.410682 -0.026711 -0.548855 0.948001 0.006959 -0.460335 0.010610 0.218506 -0.023505 0.227084 -0.696913 -0.958340 
日 -0.374059 0.371623 0.245616 -0.211558 -0.024698 -0.307599 0.907088 0.244125 0.104788 0.242103 0.322097 -0.384418 0.547601 -0.291720 -0.359637 -0.402930 0.462204 -0.720718 0.791378 0.453775 0.455399 0.233960 0.618255 -0.985838 0.048061 -0.272065 -0.726464 -0.806814 -0.072729 0.219782 -0.302880 0.167264 -0.286279 -0.286206 -0.960607 0.667774 0.716978 -0.074198 1.463363 -0.718792 -0.190728 0.706034 0.052975 0.402734 0.664010 0.066102 -0.595827 0.191309 -1.088755 -0.776283 
美 0.037829 0.131278 0.522931 0.109360 0.660121 -0.116421 0.975817 -0.554009 -0.222399 0.480223 0.175268 -0.183717 0.246893 0.599832 -0.378406 0.306310 0.124597 -0.329513 0.962744 0.613782 0.015410 0.437218 0.688835 -0.884329 0.071061 0.156556 -0.318266 -0.099836 -0.013074 0.699186 -0.087059 -0.053160 -0.552678 -0.069588 -0.238897 0.704766 0.861287 0.075518 1.017107 -0.298360 -0.767949 1.041669 0.081048 0.320844 0.929941 0.233789 -0.525218 0.105528 -0.266542 -0.280394 
是 -0.271309 -0.020461 0.296669 -0.370882 -0.097474 -0.370665 0.729085 -0.218375 0.221362 -0.053238 0.486903 0.484578 -0.545431 -0.357485 -0.008870 0.696423 -0.038722 -0.321955 0.056163 0.310319 0.029273 -0.139282 -0.064380 -0.737819 -0.418389 0.142160 -0.684899 -0.100349 0.133227 0.248551 -0.301104 0.075397 -0.575165 -0.258020 -0.186317 0.610961 0.516239 0.062193 0.691940 -0.320938 -0.209664 0.192202 -0.332084 -0.196706 0.440998 0.448005 -0.054198 0.101786 -0.099465 -0.626763 
法 0.017971 -0.684939 0.866443 -0.750492 0.158568 0.325726 0.426724 -0.307647 -1.151543 0.561791 0.106594 -0.025490 0.137065 -1.320034 -0.053920 0.780433 0.836778 -0.719988 -0.043459 0.366216 -0.067160 0.512520 0.760114 -0.629392 0.062700 -0.212091 -0.628970 -0.674649 -0.673140 0.472897 -0.492517 -0.334754 -0.768640 0.299845 -0.272523 -0.390655 0.102721 -0.052681 0.797235 -0.692771 -0.361091 0.511892 -0.121959 0.466621 0.376360 1.048541 -0.717960 -0.014325 -0.548422 -0.826658 
和 0.504856 -0.022234 0.469720 -0.091459 0.095783 -0.297949 0.736672 -0.363622 -0.484636 -0.134507 -0.054826 0.011121 0.073433 -0.144920 -0.003841 0.556976 0.165678 -0.347449 0.351505 0.062850 0.105258 0.028938 -0.031010 -0.543612 -0.328566 -0.179351 -0.607334 -0.259310 0.031568 -0.010544 -0.149571 0.001045 -0.505881 -0.299182 -0.045838 0.591042 0.407316 0.201631 0.691441 -0.144494 -0.381771 0.635302 -0.115123 -0.326370 -0.032278 0.575569 -0.381221 0.453691 -0.765934 -0.453749 
这 -0.294687 0.172917 0.090881 -0.363848 -0.019257 -0.174552 0.877885 -0.158127 0.143954 0.160972 0.410532 0.593400 -0.612124 -0.048387 0.045023 0.508059 0.069390 -0.404428 0.058320 0.360503 -0.042629 -0.362662 -0.463924 -0.733421 -0.407161 -0.083811 -0.836351 -0.358573 0.180446 0.423844 -0.353026 0.053036 -0.451298 -0.295442 -0.059906 0.684652 0.414382 0.060141 0.825469 -0.226525 -0.534315 0.261191 -0.448319 0.091775 0.228787 0.456486 -0.235008 -0.110001 -0.089100 -0.659276 
/ -0.234956 -1.640847 0.547261 -0.256735 -0.735436 0.042125 0.549984 0.350128 -2.192612 0.674945 0.727721 -0.097004 0.020194 -0.936617 -0.841708 1.060507 0.613008 0.424964 0.861420 0.980837 0.204577 0.415280 0.727811 -0.338261 -0.480411 0.522151 -0.780155 -0.355754 -0.804811 0.105594 -0.031815 -0.419462 -0.966248 0.558122 -0.158887 -0.776438 0.059598 0.038572 0.988128 -0.555905 -0.907378 1.190007 0.687675 -0.300449 0.588279 1.430687 -0.397224 0.014395 0.254376 0.257516 
大 -0.034958 0.082555 0.387432 0.330491 -0.021159 0.030135 0.696131 -0.178397 -0.464198 0.003752 0.113099 0.016174 -0.271893 -0.061127 -0.132798 0.669146 -0.090403 -0.273105 0.637935 0.003835 0.219398 -0.231525 0.454373 -0.635949 -0.121669 0.144684 -0.678001 0.251609 0.146381 0.212934 0.092881 -0.374324 -0.406378 0.153305 0.202891 0.966910 0.509081 -0.215073 0.982576 -0.229178 -0.430428 0.818475 0.332441 -0.182212 0.347430 0.200102 -0.264794 0.335927 -0.208164 -0.647749 
他 -0.158748 -0.144142 0.086647 -0.395278 0.117724 -0.372206 0.877126 -0.226300 0.054162 -0.226435 0.238649 0.280120 -0.664363 -0.514385 -0.102949 0.598799 0.007739 -0.312362 -0.113520 0.491943 -0.171613 0.057903 -0.435679 -0.681960 -0.275288 0.131535 -0.953569 -0.433950 0.038012 0.348220 -0.357251 0.365792 -0.584368 -0.116755 -0.114848 0.585037 0.556760 0.131397 0.531910 -0.139073 -0.557084 0.223478 -0.422467 -0.056762 0.388169 0.705206 -0.436031 -0.308922 -0.255443 -0.379959 
有 -0.010199 -0.012131 0.432559 -0.299639 -0.279109 -0.041238 0.568619 -0.283961 0.166484 0.060330 0.751389 0.543371 -0.409429 0.203323 -0.018888 0.822210 -0.039189 -0.102864 0.201024 -0.094735 -0.148019 -0.132940 -0.074318 -0.718339 -0.471886 0.037623 -0.474766 -0.266915 0.144453 0.072023 -0.446122 -0.007907 -0.244755 -0.485859 0.147072 0.916772 0.339060 0.087038 0.827115 -0.018987 -0.316797 0.396049 -0.290130 -0.323853 0.259336 0.483815 0.104391 0.191099 -0.041737 -0.994499 
斯 1.071894 -0.513021 0.617910 -0.127936 0.517507 -0.392623 0.846878 0.169136 -0.001061 -0.597011 0.091622 -0.085859 0.165045 -0.509493 0.389065 0.284686 0.475492 -0.444338 0.766498 0.362899 -0.211632 0.727934 -0.365585 -0.796821 -0.538612 -0.401832 -0.891490 -0.510486 -0.400998 -0.497428 0.135021 0.445605 -0.400038 -0.729004 -0.940394 0.037217 0.059350 0.118425 1.032894 -0.384539 -0.421507 0.476561 0.253327 -0.457265 -0.080899 0.540323 0.131323 1.295103 -1.043702 0.006651 
新 -0.011163 -0.422399 0.706312 -0.474958 -0.118879 0.692292 0.162813 -0.062346 -1.113804 0.657040 0.498929 -0.129716 0.054119 -1.247846 0.048598 0.779924 0.638827 -0.768049 -0.232690 0.699293 0.111855 0.422806 0.920139 -0.635208 0.026189 -0.280437 -0.562101 -0.592103 -0.845239 0.372127 -0.602502 -0.590148 -1.000397 0.275950 -0.270169 -0.191574 0.099961 -0.286364 1.021268 -0.652525 -0.196533 0.635633 0.006355 0.712904 0.422839 0.965329 -0.397537 0.273876 -0.390551 -1.105673 
年 -0.832224 0.098135 0.484535 0.018170 0.056107 -0.285985 0.705646 0.280157 0.155812 0.219905 0.753348 0.366058 -0.505667 -0.023714 -0.262474 0.414611 -0.050608 -0.001858 0.739012 0.334015 0.341878 -0.078888 0.457989 -0.743638 -0.287310 0.555469 -0.551961 -0.043959 0.176199 0.299443 -0.475830 0.050355 -0.393432 -0.096942 -0.470219 0.849755 0.311185 -0.101555 1.284874 -0.610671 -0.396392 0.507599 0.015889 0.360823 0.760651 0.065981 0.104437 -0.018382 -0.312182 -0.673257 
「 -0.093594 -0.155391 0.237065 -0.576032 0.250528 -0.329220 0.902827 -0.388850 -0.064110 0.073474 0.033929 0.396941 -0.567233 -0.715426 0.181946 0.561988 0.076767 -0.596640 -0.455300 0.622387 -0.255812 0.157842 -0.453064 -0.827653 -0.195052 -0.084924 -0.852725 -0.517536 -0.141700 0.467085 -0.611448 0.034263 -0.726525 -0.052102 -0.313011 0.129857 0.598202 0.141053 0.380278 -0.518631 -0.328399 0.093769 -0.917897 0.155387 0.205944 0.908831 -0.339041 -0.315936 -0.391734 -0.653961 
将 -0.261803 0.060471 0.330061 0.008409 -0.162198 -0.338226 0.772808 -0.351087 -0.015145 -0.216654 0.371317 0.370596 -0.285802 -0.173639 -0.292332 0.669548 0.109029 -0.408789 0.333297 0.554513 -0.068530 -0.087016 -0.183112 -0.485076 -0.389127 0.077896 -0.783502 -0.125851 0.200651 0.417986 -0.393647 0.197582 -0.681781 -0.143927 -0.227059 0.555715 0.537302 -0.019598 0.683884 -0.164222 -0.333948 0.469501 -0.472913 -0.258462 0.272021 0.410024 -0.329537 -0.045142 -0.106816 -0.371794 
说 -0.111756 0.008591 -0.068540 -0.721228 0.078220 -0.413258 0.797364 -0.191895 -0.323266 -0.144992 -0.003500 -0.042391 -0.551601 -0.430207 -0.356166 0.510832 0.361166 -0.075579 -0.217853 0.664220 -0.212415 0.166399 -0.577802 -0.903966 -0.207380 -0.011582 -0.926872 -0.918722 0.164785 0.368620 -0.253526 0.486462 -0.943051 -0.191133 -0.427827 0.066202 0.436052 0.443537 0.651347 -0.181760 -0.675186 0.129023 -0.808265 0.003165 0.530818 0.882929 -0.428683 -0.463326 -0.723270 -0.158408 
为 -0.170944 -0.176112 0.314963 -0.056827 -0.241292 -0.276712 0.578754 -0.080046 -0.004026 0.224921 0.635565 0.588292 -0.540100 -0.158306 -0.266385 1.035606 -0.074666 -0.312578 0.335148 0.520013 0.127467 -0.186838 0.159543 -0.664882 -0.389934 0.087991 -0.478758 -0.157155 0.183916 0.471711 -0.321379 -0.098212 -0.438258 -0.155739 -0.241770 0.413886 0.497066 0.130427 0.726775 -0.141487 -0.454992 0.578917 -0.107728 0.001146 0.367742 0.501817 -0.201196 0.092941 0.300665 -0.341006 
电 -0.131600 0.712422 0.216023 -0.273592 -0.180128 -0.122050 1.066932 0.071353 -0.001751 0.489822 0.292826 -0.628591 0.943848 -0.246250 -0.049126 -0.714646 0.398177 -0.745078 0.644998 0.304641 0.643312 0.160227 0.658434 -1.205373 0.425031 -0.676337 -0.752562 -0.680883 -0.261360 0.335408 -0.137496 0.009775 -0.199227 -0.424226 -0.738053 0.710261 0.902128 0.012139 1.272042 -0.758590 -0.036913 0.778623 -0.022537 0.139589 0.663949 0.229154 -0.692397 0.261768 -1.254827 -1.149893 
出 0.279881 0.083551 0.098482 -0.358199 -0.343563 -0.045825 0.661601 -0.194543 -0.271451 0.153490 0.739111 0.116967 -0.298619 0.146432 0.131290 0.570840 0.014969 -0.115135 0.112198 0.466412 -0.030777 -0.169742 -0.049104 -0.575608 -0.105949 0.216597 -0.527597 -0.293867 -0.205401 0.249968 -0.278378 -0.068763 -0.696681 -0.200153 -0.099174 0.563792 0.385227 0.055230 0.744765 -0.239166 -0.641924 0.172354 -0.431059 -0.058563 0.370546 0.567158 0.086295 -0.125288 -0.219693 -0.816774 
三 -0.214200 0.201630 0.419926 0.161815 -0.129946 -0.139089 0.465472 0.298099 0.329339 -0.079998 0.875270 0.485492 -0.210754 0.235834 -0.233125 0.700966 0.299736 -0.146564 0.948480 0.288040 0.308126 -0.014765 0.565317 -0.889993 -0.376504 0.068357 -0.475256 -0.373652 0.057350 0.104138 -0.196764 0.050811 -0.355305 -0.233975 -0.668615 0.736666 0.207406 -0.223357 1.285050 -0.325989 -0.329326 0.573609 0.171476 0.440690 0.451302 -0.010627 -0.119505 0.452466 -0.322184 -0.926421 
行 0.190084 -0.014358 0.125307 0.411022 -0.597753 -0.230393 0.817787 -0.077002 -0.444358 -0.358120 0.087638 0.462398 -0.185105 -0.185813 -0.396839 0.611881 0.110854 -0.449405 0.791401 -0.158377 0.117698 -0.571971 -0.137571 -0.492081 0.128922 -0.652632 -0.645325 -0.274904 0.351426 0.538663 -0.534880 0.262806 0.106763 -0.322367 -0.059221 0.312430 0.164437 0.015035 0.736383 -0.147098 -0.975432 1.113446 -0.122054 -0.320049 -0.024509 0.224705 -0.362294 -0.164890 -0.461659 -0.631283 
不 -0.091180 -0.400369 0.091186 -0.359841 -0.251514 -0.159555 0.704134 -0.163975 0.026528 -0.107714 0.627886 0.444315 -0.685468 -0.270574 -0.224736 0.928230 0.042778 -0.195519 -0.054213 0.226992 -0.238053 0.003437 -0.189099 -0.610692 -0.654302 0.159384 -0.675505 -0.107414 0.149692 0.241421 -0.417493 0.246556 -0.363231 -0.379946 0.122907 0.723944 0.459298 0.098841 0.400638 -0.176618 -0.522254 0.374988 -0.433233 -0.426856 0.277169 0.373122 -0.131635 0.063180 -0.094855 -0.553189 
二 -0.371686 0.185228 0.382490 0.162433 -0.091966 -0.282166 0.524772 0.333809 0.321539 -0.124655 0.766462 0.331395 -0.232823 0.075342 -0.376028 0.707788 0.247354 -0.221180 1.007427 0.275223 0.307296 0.009280 0.599656 -0.865731 -0.393462 0.094506 -0.523590 -0.325639 0.017344 0.083097 -0.086410 0.053718 -0.344029 -0.249764 -0.771173 0.629462 0.278671 -0.348887 1.331137 -0.444889 -0.264177 0.497496 0.220317 0.496586 0.429949 -0.052408 -0.042051 0.563177 -0.446840 -0.961898 
对 0.013553 -0.211830 0.110557 -0.331717 0.120638 -0.268389 1.093222 -0.434575 -0.307414 -0.270904 -0.022325 0.163122 -0.432087 -0.202046 -0.108890 0.589009 -0.000296 -0.382936 0.046321 0.142390 -0.076426 -0.077483 -0.112889 -0.339158 -0.412046 -0.159099 -0.728756 -0.226957 -0.005274 0.199326 -0.164868 0.260045 -0.414794 -0.283707 -0.081717 0.657828 0.328246 0.149815 0.577115 -0.052175 -0.346284 0.633377 -0.184116 -0.313208 0.133193 0.665215 -0.180549 0.360889 -0.452864 -0.705004 
成 0.227103 -0.297155 0.540894 0.072123 -0.405993 0.187338 0.377127 -0.055747 -0.223170 0.167526 0.495027 0.628139 -0.174268 0.135597 -0.229830 1.047608 -0.115527 -0.206148 0.691682 -0.000287 0.214911 -0.407847 0.194209 -0.700849 -0.815167 0.193625 -0.254193 -0.220760 0.085045 0.035790 -0.475625 -0.564289 -0.031519 -0.123645 0.008802 0.654168 0.442905 0.319665 0.841219 0.003342 -0.721437 0.900461 -0.196105 0.131734 -0.016392 0.285186 -0.112705 0.517625 0.281719 -0.551906 
月 -0.556699 0.603139 0.602636 0.152941 -0.101387 -0.164662 0.530679 0.309251 0.355607 0.301284 0.751364 -0.056449 0.035250 -0.365722 -0.430288 0.185763 0.245019 -0.446409 0.631008 0.323477 0.426239 -0.119014 0.855315 -0.834096 0.107106 -0.073497 -0.616807 -0.391328 -0.016863 0.381743 -0.477928 -0.014909 -0.591068 -0.145167 -0.828139 0.828864 0.283310 -0.463299 1.588742 -0.720973 -0.042499 0.691193 0.146207 0.459166 0.615558 0.000951 -0.347390 0.304649 -0.608045 -1.036578 
2 -0.391765 -1.158006 0.643107 -0.256794 -0.365038 -0.015893 0.389022 0.379485 -1.588442 0.750683 0.852577 0.120252 0.110730 -0.820438 -0.483284 0.993848 0.749899 0.148814 0.642905 1.043790 0.096045 0.396257 0.950242 -0.644896 -0.395576 0.417503 -0.704439 -0.513522 -0.665086 0.364068 -0.185425 -0.407619 -1.077885 0.367893 -0.581658 -0.803450 0.045655 -0.008241 1.189234 -0.598050 -0.684237 0.720515 0.393354 0.306020 0.719213 1.181512 -0.356516 -0.098998 0.174288 -0.126407 
巴 0.794654 -0.785871 0.396957 -0.491169 0.536086 -0.007658 0.677673 0.264428 -0.811641 -0.299606 0.476638 -0.220232 0.087122 -0.484877 -0.174474 0.476909 0.809724 -0.551636 0.210265 0.542407 0.115613 0.435701 -0.327869 -0.253525 -0.999200 0.066139 -0.962041 -1.137543 -0.526499 -0.622537 0.065242 -0.064716 -0.340088 -0.308491 -0.465120 0.381551 0.067139 0.025140 0.884979 0.161431 -0.215837 0.834135 -0.235494 -0.036962 -0.686924 0.654344 -0.030885 0.849224 -1.519734 -0.588153 
拉 0.610969 -0.554654 0.412901 -0.016273 0.230510 -0.140007 0.332857 0.229244 -0.308281 -0.600472 -0.557139 0.056806 0.156893 -0.931397 0.219379 0.753866 0.629089 0.026193 0.728927 0.034616 -0.212584 0.535963 -0.020823 -0.558334 -0.510219 0.006673 -0.739117 -0.263435 0.003728 -0.165718 -0.012514 0.195033 -0.943264 -0.339384 -0.639504 0.318789 -0.010184 0.047999 0.618184 -0.921736 -0.655978 0.418107 0.090437 -0.863495 -0.007593 0.695208 -0.069986 0.569529 -1.303326 -0.070988 
表 0.038165 0.573266 -0.128116 -0.155821 -0.081050 -0.003403 0.963032 -0.349525 -0.005200 -0.229251 0.129118 0.070303 -0.316662 -0.167547 -0.319834 0.404711 0.224690 -0.343672 0.044569 0.889817 -0.103451 -0.156871 -0.466113 -1.076692 0.245855 -0.350889 -0.683473 -0.636077 0.117399 0.497963 -0.098773 0.561978 -0.952916 -0.550930 -0.354762 -0.192549 0.205712 0.342153 0.860676 -0.510911 -1.116159 0.462178 -0.786968 -0.079336 0.333382 0.492782 -0.632938 -0.519370 -0.426344 -0.168959 
时 -0.208251 -0.293585 0.223303 0.098552 -0.262394 -0.054706 0.825561 -0.086159 0.097596 -0.294348 0.452332 0.193022 -0.440231 -0.107377 -0.485392 0.716274 0.339357 -0.673262 0.537066 0.429130 0.027770 0.279998 0.047482 -0.606865 -0.160544 0.184295 -0.827728 -0.291493 -0.020360 0.164654 -0.575251 0.355631 -0.370928 -0.094403 -0.227048 0.395864 0.313982 -0.134125 0.651176 -0.116120 -0.632880 0.595292 -0.301876 0.108699 0.447943 0.161739 -0.388390 -0.141361 -0.410370 -0.525457 
上 -0.045288 0.003668 0.177303 0.033160 -0.311486 0.042741 0.576357 -0.078091 -0.146309 0.225166 0.925938 0.225332 -0.312239 0.066698 -0.018527 0.617057 0.335127 -0.327214 0.244784 0.417434 0.046950 0.057982 0.282508 -0.507612 -0.425327 0.076194 -0.691669 -0.158248 -0.201170 0.154995 -0.309923 0.050037 -0.557110 -0.073751 -0.288852 0.620629 0.140631 -0.174935 0.774882 -0.579780 -0.482861 0.350785 -0.157333 0.050107 0.373487 0.367391 -0.053010 0.068929 -0.182638 -0.616269 
与 0.372458 0.033531 0.415736 -0.109781 0.036581 -0.156192 0.899396 -0.332202 -0.403813 -0.187739 -0.123398 -0.120081 0.112606 -0.194370 0.001659 0.382016 0.242628 -0.362113 0.262833 0.213770 0.031532 0.168945 -0.083682 -0.469325 -0.199350 -0.279462 -0.634184 -0.334682 0.022763 0.120899 -0.245142 0.019322 -0.478602 -0.253124 -0.143691 0.539421 0.566444 0.117361 0.583018 -0.246226 -0.434898 0.651393 -0.084500 -0.287975 0.180870 0.584956 -0.313680 0.264740 -0.862162 -0.519735 
天 -0.402085 0.179072 -0.159334 0.042012 0.107976 -0.046671 0.931028 0.048062 0.040448 -0.151339 0.333638 -0.075747 -0.453469 -0.371819 -0.423339 0.011863 0.364249 -0.163993 0.511540 0.356531 0.197577 0.199441 -0.251031 -0.676307 -0.575335 -0.186616 -0.915677 -0.516876 0.239086 -0.036757 -0.444783 0.779141 -0.336954 0.138423 -0.488231 0.501070 0.090545 -0.017086 1.036482 -0.756068 -0.714424 0.322776 -0.366203 -0.104754 0.365932 -0.021004 -0.655066 -0.245585 -1.039165 -0.839259 
发 0.473002 -0.115074 0.006131 -0.453184 -0.264509 0.482731 0.675360 -0.318305 -0.249700 0.077978 0.250727 -0.143788 -0.647190 0.203488 -0.134685 0.420559 0.048851 -0.413522 0.318228 0.163179 0.381514 -0.061283 -0.528715 -0.747127 -0.313890 -0.142226 -0.620806 -0.745517 -0.135086 -0.343274 -0.107949 0.013971 0.101581 -0.353413 0.109911 0.445271 -0.055416 0.250632 0.656596 -0.505773 -0.516961 0.652450 -0.529670 -0.029539 0.148816 0.641593 -0.435615 0.303525 -0.477135 -0.885779 
a 0.850064 0.549925 0.427515 0.720836 -0.843270 -0.426808 0.972352 0.078386 -0.179422 0.396607 0.491851 0.367366 0.256045 -0.283493 1.263523 0.583177 -0.048136 -0.540078 0.601201 1.183233 0.145933 0.024716 0.224701 -1.142430 -0.014500 -0.684224 -0.519080 0.036144 -0.262627 0.970913 0.078367 -0.634618 -1.016855 -0.825734 -0.756475 -0.277188 0.624448 0.178598 0.575266 -1.601097 -0.991760 0.433621 -0.633426 -0.325893 0.380907 1.242369 -0.446018 0.066366 0.338732 -0.014035 
公 0.243827 0.935629 0.456375 -0.057552 -0.524533 -0.108179 0.834136 -0.454943 -0.553995 0.444205 0.711839 -0.359159 -0.243956 0.457933 0.319992 0.142593 0.145367 -0.165577 0.193584 0.468238 0.627571 0.177799 0.080392 -0.776917 0.571540 0.023853 -0.708252 0.277123 0.006433 0.468850 0.271430 -0.739307 0.005664 -0.274142 -0.367878 0.417536 0.766262 -0.232762 1.096302 -0.688062 -1.063979 0.459967 -0.212918 0.199521 0.475129 0.536743 -0.037266 0.483475 -0.026841 -0.345880 
总 -0.052879 0.119038 0.613133 0.153471 -0.134457 -0.866749 0.720785 -0.101343 -0.221986 -0.715501 -0.449946 -0.485839 0.216382 -0.135307 -0.559319 0.990548 0.148940 -0.475913 1.518281 0.301212 -0.265258 0.462902 -0.220238 -0.417571 0.109328 -0.388461 -0.542691 0.131320 0.451816 -0.230871 0.273609 0.154190 -0.502137 0.432230 -0.608195 0.419304 1.136196 -0.247490 0.750359 -0.335859 -0.399414 0.480078 0.457390 -0.482099 0.022369 0.846953 -0.343747 0.105071 -1.036934 -0.642256 
之 0.188341 -0.225265 0.274611 0.233419 -0.150684 -0.247763 0.252219 0.043014 0.066195 -0.306241 0.733225 0.461078 -0.896300 0.105330 -0.429002 1.355006 0.030783 -0.359260 0.899003 0.288247 0.069719 0.296693 0.513186 -0.526221 -0.402857 0.068269 -0.405762 -0.439359 0.212743 0.170265 0.022761 0.302211 -0.092705 -0.137416 -0.850287 0.528853 0.308847 -0.082039 0.678171 -0.010046 -0.886441 0.523255 0.093116 0.347507 0.412462 0.255925 -0.099884 0.542158 0.115648 -0.707162 
五 -0.263588 0.191346 0.453139 0.215158 -0.065584 -0.222225 0.541737 0.353278 0.465156 -0.099740 0.881323 0.390168 -0.236810 0.349310 -0.211554 0.793627 0.226946 -0.107881 1.150153 0.355218 0.245048 0.031429 0.597734 -0.906714 -0.417471 0.147827 -0.351524 -0.292400 0.149848 0.117244 -0.089328 0.038681 -0.279427 -0.317507 -0.794870 0.641787 0.294034 -0.196164 1.368891 -0.369212 -0.435274 0.577852 0.111532 0.489617 0.501808 0.018191 -0.108879 0.477199 -0.322945 -0.790626 
前 -0.279746 -0.124488 0.345302 -0.355215 0.006921 -0.231531 0.866982 -0.420606 -0.100558 -0.207961 0.377558 0.346047 -0.364091 -0.232749 -0.541732 0.487590 0.079574 -0.254966 0.552308 0.494733 0.078803 0.041283 0.014841 -0.452675 -0.498764 0.279477 -0.672872 0.016505 0.057145 -0.068586 -0.339384 0.161201 -0.507060 -0.088478 -0.158503 0.760246 0.304128 -0.115252 0.914192 -0.154850 -0.330310 0.289010 0.050622 -0.203391 0.410480 0.243555 -0.232378 0.031522 -0.510840 -0.636596 
百 -0.020931 0.028957 0.477810 0.515940 0.070625 0.102169 0.339712 0.287274 0.333799 0.058808 1.205698 0.866931 -0.311727 0.754774 -0.035434 1.588889 -0.023513 0.123052 1.182508 0.210663 0.416206 0.182702 0.818703 -1.002668 -0.723094 0.263479 -0.032616 -0.310445 0.335877 -0.014712 -0.053809 -0.394464 -0.400876 -0.665391 -0.692240 0.634982 0.225202 0.195506 1.305159 -0.125230 -0.584893 0.514199 -0.043110 0.440668 0.232669 0.215589 0.183656 0.786557 0.178139 -0.725328 
分 0.015709 -0.062217 0.272794 0.548140 0.128966 -0.025351 0.421113 0.042806 0.175730 0.029851 1.099445 0.697389 -0.737237 0.330742 -0.082834 1.549290 0.002386 -0.244548 0.870899 0.325119 0.428600 0.140346 0.511718 -0.821341 -0.499746 0.223302 -0.454684 -0.344356 0.390640 0.227059 0.134659 -0.261659 -0.292297 -0.553025 -0.908902 0.634400 0.285082 -0.002124 0.904697 -0.171837 -0.742001 0.415687 -0.122401 0.588940 0.107470 0.019137 0.163013 0.751968 0.479690 -0.671614 
」 0.174034 -0.053958 0.237487 -0.260695 -0.397172 -0.022414 0.747226 -0.219815 -0.365495 -0.135665 0.258698 0.044817 -0.492480 -0.280400 -0.005428 0.567972 0.139497 -0.351731 0.117689 0.348020 0.008413 0.165073 -0.179312 -0.504281 -0.166209 -0.118539 -0.568358 -0.196157 0.023011 0.145987 -0.217744 0.018125 -0.587450 -0.318110 -0.153955 0.233793 0.482339 0.144409 0.510577 -0.583527 -0.659623 0.316787 -0.340467 -0.123584 0.403328 0.621293 -0.244023 -0.082851 -0.118785 -0.370611 
社 -0.310880 -0.499206 0.722650 -0.403582 -0.032275 0.567103 0.166629 -0.031090 -1.009136 0.400278 0.405589 -0.463235 0.051360 -1.717216 -0.192179 0.931176 0.854659 -0.678602 -0.228593 0.696695 0.295429 0.584319 0.905354 -0.675816 -0.027969 -0.297652 -0.757072 -0.823928 -0.856415 0.380019 -0.751689 -0.388416 -1.496480 0.257478 -0.641781 -0.321023 0.023783 -0.333076 1.301583 -0.441884 -0.190572 0.725278 -0.160506 0.768612 0.570928 1.049422 -0.597019 0.535664 -0.794595 -0.911522 
四 -0.123669 0.109601 0.452994 0.175834 -0.015351 -0.283349 0.543519 0.335796 0.436430 -0.168316 0.832122 0.378226 -0.214297 0.216834 -0.291366 0.849440 0.142828 -0.180982 1.233283 0.256873 0.291985 0.115050 0.599153 -0.879311 -0.434345 0.024076 -0.240373 -0.378310 0.098617 0.037644 -0.094686 0.084174 -0.237227 -0.342773 -0.901224 0.656329 0.280304 -0.157636 1.232674 -0.275347 -0.381673 0.562080 0.206855 0.387474 0.407417 0.052115 -0.112342 0.695496 -0.299712 -0.818153 
后 -0.132825 -0.205317 -0.029842 -0.033153 -0.207920 -0.197815 0.757249 -0.050410 -0.310168 -0.266389 0.459033 0.325651 -0.495994 -0.098271 -0.334693 0.534378 0.299368 -0.187308 0.595911 0.247422 -0.008019 -0.015567 -0.089544 -0.454771 -0.683459 0.242602 -0.889598 -0.124087 0.012154 0.063194 -0.286870 0.314269 -0.330449 -0.016364 -0.018859 0.510672 0.160081 -0.010981 0.789507 -0.306033 -0.645013 0.687933 -0.117697 -0.060461 0.367001 0.144168 -0.226215 -0.029977 -0.264397 -0.522018 
3 -0.344360 -1.070650 0.674538 -0.143789 -0.337173 0.020916 0.271107 0.369013 -1.517701 0.849949 0.998552 0.225777 0.141934 -0.831150 -0.324651 1.054754 0.773256 0.133173 0.651861 1.062424 0.116024 0.396174 1.113600 -0.776088 -0.453644 0.373530 -0.670023 -0.480870 -0.665668 0.445878 -0.171121 -0.550692 -1.136867 0.329197 -0.635790 -0.822969 0.050384 -0.040014 1.256214 -0.726783 -0.719525 0.748276 0.422474 0.387623 0.754818 1.194648 -0.326009 -0.052010 0.278868 -0.158960 
九 -0.528058 0.201465 0.551611 0.023002 0.094398 -0.262980 0.499817 0.373066 0.468178 0.020832 0.704187 0.344061 -0.227507 0.072920 -0.345386 0.717992 0.275352 -0.145658 0.946354 0.276040 0.332653 -0.058347 0.523269 -0.754142 -0.228087 0.174538 -0.417645 -0.442139 0.133746 0.198040 -0.314831 0.066195 -0.419108 -0.273147 -0.850406 0.868724 0.210114 -0.286189 1.489011 -0.410589 -0.189777 0.483172 0.197588 0.563136 0.614490 0.063057 -0.107532 0.389874 -0.554555 -1.021671 
高 -0.309162 -0.491720 0.424284 0.241761 -0.410302 0.106802 0.285544 -0.175211 -0.382406 -0.341151 0.255160 0.686303 -0.264359 -0.512568 -0.444349 1.064515 0.048005 -0.215002 0.665725 0.167040 0.139129 0.012729 0.490651 -0.299697 -0.813104 -0.336031 -0.542549 0.085684 0.239360 0.156869 -0.282397 0.021135 -0.486562 0.114544 -0.059308 0.597830 0.400700 -0.125849 0.804701 0.292433 -0.617267 1.222476 0.128081 -0.093185 0.040747 0.206900 -0.481282 0.257381 -0.414462 -0.309673 
名 0.199964 -0.204814 0.322321 -0.524183 0.248735 0.133891 0.867525 0.088089 -0.080839 0.023916 0.558069 0.015676 -0.252222 0.307510 0.054484 0.329810 0.253128 -0.239878 0.751329 0.018958 0.196412 0.345207 -0.011623 -0.710694 -0.603164 0.245455 -0.410717 -0.629978 -0.034833 -0.509463 0.115899 -0.137507 0.095945 -0.362106 -0.439354 0.794452 0.345578 0.275867 1.129605 -0.253211 -0.683486 0.520758 -0.070309 0.346262 0.133958 0.203248 0.017406 0.618642 -0.836969 -0.650954 
e 0.883557 0.545012 0.396477 0.737799 -0.912949 -0.457893 1.019639 0.102625 -0.189454 0.410986 0.514858 0.413057 0.215958 -0.292734 1.304765 0.637115 -0.061447 -0.570665 0.560928 1.189113 0.082247 -0.011271 0.229822 -1.113016 -0.050796 -0.720101 -0.523815 0.115121 -0.314544 1.002162 0.144025 -0.625224 -1.066785 -0.856553 -0.787796 -0.310644 0.627428 0.190794 0.610694 -1.680645 -1.058372 0.426870 -0.695799 -0.389637 0.348747 1.306056 -0.399578 0.097964 0.387101 0.001540 
、 0.598523 0.054485 0.342206 -0.030193 -0.211031 -0.251422 0.640972 -0.094124 -0.240270 -0.068290 0.307278 0.013254 0.089176 -0.163987 0.295196 0.577804 0.277232 -0.147884 0.426524 0.234975 0.170362 0.082586 0.157941 -0.561639 -0.213935 -0.109216 -0.497900 -0.261939 -0.073120 -0.013862 -0.104003 -0.191718 -0.413674 -0.304371 -0.314774 0.406266 0.380261 0.144507 0.608327 -0.633080 -0.536906 0.498390 -0.038789 -0.364528 0.142183 0.527439 -0.112879 0.410226 -0.532577 -0.466034 
今 -0.346534 0.237747 0.328341 0.047862 0.035810 -0.149592 0.709060 0.113028 0.340253 -0.306351 0.608731 0.164242 -0.317476 -0.250337 -0.137398 0.512642 0.556776 -0.485197 0.484268 0.668742 -0.135460 -0.120994 -0.201174 -0.658375 -0.318909 -0.436105 -0.765781 -0.566135 0.252847 0.407730 -0.372641 0.882686 -0.806872 -0.026474 -0.727708 0.502665 0.086807 0.097382 1.179390 -0.315284 -0.249013 0.144025 -0.397122 0.019146 0.423588 0.284205 -0.584214 -0.408690 -0.597783 -0.662693 
示 0.214484 0.206813 -0.324331 -0.079801 0.196551 -0.587439 1.101730 -0.215969 -0.169047 0.091365 0.020365 0.436499 -0.510246 -0.058690 -0.018915 0.297930 0.192367 -0.415933 0.157051 0.922465 -0.173133 0.312550 -0.522746 -1.181813 -0.249787 0.255210 -0.561649 -0.796311 0.344094 0.651134 -0.534206 -0.040572 -0.989866 -0.133618 -0.616385 0.052094 0.520370 0.292736 0.463688 -0.264325 -0.873632 0.176488 -0.869165 -0.001095 0.241624 0.650728 -0.681881 -0.688783 -0.612502 -0.218129 
个 -0.260792 0.152901 0.441541 -0.049065 -0.064538 -0.012181 0.882751 -0.024086 0.139463 0.148825 0.262486 0.282498 -0.453969 0.269843 -0.036992 0.353459 -0.155879 -0.381581 0.441337 0.111329 0.447400 -0.074591 0.116022 -0.668890 -0.270324 0.037946 -0.447332 -0.125969 0.067644 0.164887 -0.306695 -0.128408 -0.072572 -0.405390 -0.034743 0.919379 0.568450 -0.109598 1.121543 -0.369525 -0.399445 0.528785 -0.147512 0.326775 0.599120 0.218158 -0.057180 0.323795 -0.208723 -0.902094 
克 0.442982 -0.283793 0.277072 0.000990 0.116535 -0.434851 0.437641 0.179173 -0.262147 -0.566563 -0.234243 0.141944 0.185193 -0.992578 0.214738 0.618550 0.845578 -0.177946 0.735233 0.346616 -0.331454 0.457071 -0.111447 -0.631448 -0.546044 -0.251933 -0.818964 -0.504924 -0.015333 -0.128508 -0.002181 0.117862 -0.598783 -0.559659 -0.903822 0.141303 0.016722 0.246351 0.716783 -0.762724 -0.612647 0.592728 -0.183098 -0.541061 -0.304675 0.854266 -0.224359 0.613048 -1.350621 0.350535 
尔 -0.240403 -0.099310 0.722765 -0.119271 -0.031349 -0.789189 0.299146 -0.048963 -0.020431 -0.645083 -0.231836 0.186347 -0.164611 -1.287950 -0.402090 0.542259 0.056826 -0.215280 0.423257 -0.056495 0.342785 0.305467 0.375308 -0.979211 -0.359497 -0.659844 -0.431484 -0.105485 -0.182791 -0.166923 0.038695 -0.155889 -1.176803 -0.461950 -0.933024 0.435720 0.074620 0.057956 0.802041 -0.551740 0.078334 0.528888 -0.306343 -0.040340 0.301224 1.129112 -0.313497 0.936782 -0.630139 -0.001048 
于 -0.151971 -0.053192 0.391999 -0.023791 0.020550 -0.184424 0.566974 -0.137142 -0.043109 0.074266 0.484841 0.207000 -0.170864 -0.122023 -0.289387 0.570717 0.381457 -0.305342 0.385262 0.465332 0.095793 -0.012183 0.250455 -0.479185 -0.355333 0.007781 -0.579353 -0.311722 0.072706 0.272151 -0.324113 0.023788 -0.657412 -0.136672 -0.354155 0.590826 0.344183 -0.020669 0.952710 -0.304729 -0.371190 0.454967 -0.104674 0.039919 0.394490 0.422992 -0.207879 0.055554 -0.373804 -0.594341 
来 -0.059806 -0.151241 0.258582 -0.173819 -0.014284 -0.210236 0.670198 0.002562 -0.203825 0.044078 0.586732 0.241309 -0.344007 -0.098672 -0.127618 0.729003 0.219113 -0.098916 0.315201 0.089623 0.058358 0.036530 0.000684 -0.673421 -0.633467 0.482590 -0.690850 -0.271129 0.024771 -0.137311 -0.303444 -0.031268 -0.308354 -0.018504 -0.105538 0.786018 0.278425 -0.104133 0.752797 -0.401649 -0.211102 0.432236 0.048371 -0.189136 0.261488 0.127318 0.101384 0.354095 -0.528699 -0.759941 
已 0.064645 -0.117498 0.428782 -0.271855 -0.086252 -0.165435 0.646223 -0.242822 0.069873 -0.210144 0.372539 0.331770 -0.401608 -0.054217 -0.160368 0.681152 0.155423 -0.249333 0.319815 0.253978 -0.102971 -0.096879 -0.203259 -0.573414 -0.527310 0.145855 -0.655896 -0.331743 0.144098 -0.052289 -0.360825 0.389954 -0.490454 -0.275803 -0.242997 0.703682 0.242538 0.147275 0.680596 -0.264195 -0.330171 0.308160 -0.496639 -0.370542 0.331089 0.470680 -0.210375 -0.073050 -0.344727 -0.649201 
经 0.190291 0.108661 0.895944 -0.048847 0.040121 -0.362993 0.524407 -0.595223 0.029502 0.296768 0.126108 0.428480 -0.429680 -0.031377 -0.416802 0.406058 -0.101937 -0.520481 0.363053 0.303015 0.066020 -0.399226 0.038135 -0.435294 -0.374539 -0.206447 -0.392479 -0.160499 0.221239 0.272497 -0.298887 -0.303302 -0.866894 -0.478241 -0.219210 1.083389 0.561633 -0.178291 0.764780 -0.427968 -0.264930 0.119151 -0.345631 -0.168531 -0.017448 0.677903 -0.052426 -0.118874 -0.055582 -0.824289 
到 -0.243888 -0.484094 0.405644 -0.240726 -0.281168 -0.026363 0.410779 0.214280 -0.025527 0.085332 1.148754 0.530113 -0.470789 0.139017 -0.368512 1.077044 0.066487 0.183937 0.353613 0.154643 -0.068326 0.050879 0.164472 -0.661017 -0.504147 0.301073 -0.342115 -0.126641 0.004920 -0.122288 -0.306526 0.010591 -0.345503 -0.227223 -0.139563 0.653254 0.229123 -0.011838 0.954891 -0.298641 -0.556567 0.362809 0.134211 -0.096509 0.391050 0.308577 0.290502 0.237753 -0.075933 -0.796809 
员 0.172460 0.318305 0.213628 -0.375098 -0.190132 0.236930 1.227512 -0.271281 -0.348846 -0.180948 -0.284327 -0.004255 -0.503299 -0.294552 -0.055139 0.564383 0.294149 -0.653776 0.488668 0.246213 -0.177779 -0.157125 -0.346520 -0.745736 -0.070874 -0.419823 -0.359427 -0.637033 0.302721 0.167869 -0.283464 0.208821 -0.572391 0.097224 -0.216039 0.261315 0.553040 0.271183 0.700844 -0.037134 -0.722347 0.594336 -0.402272 -0.051383 0.218609 0.744608 -0.931842 -0.116230 -0.476208 -0.014609 
家 0.222527 0.378960 0.603307 -0.105053 -0.070005 0.055739 0.897537 -0.259273 -0.318074 0.087203 -0.225013 0.054419 -0.210970 0.014587 0.159599 0.400043 -0.068223 -0.484707 0.276628 0.093599 0.485301 -0.049440 0.004014 -0.655953 0.090214 -0.429099 -0.450327 -0.030312 0.256108 0.207702 0.050728 -0.371581 -0.190742 -0.402960 0.047777 0.715496 0.695747 0.015950 1.005971 -0.497018 -0.616216 0.405226 0.003360 0.007913 0.364512 0.585537 -0.452548 0.217375 -0.300629 -0.519366 
加 0.151908 0.032875 0.525098 -0.086670 0.168691 0.072775 0.178975 -0.297697 -0.632530 0.107381 0.415983 -0.044570 0.425350 -0.664443 -0.074931 1.019537 0.312697 -0.112514 0.046316 0.471074 0.084408 0.298729 0.252266 -0.735826 -0.667751 0.025155 -0.980742 -0.345708 -0.070891 0.220758 -0.525300 -0.227967 -0.854389 -0.043233 0.281416 0.318169 0.397792 -0.083829 1.010921 -0.278717 0.353693 0.640150 -0.144997 0.349296 0.234884 0.221491 0.237095 0.658031 -0.606618 -0.720103 
特 0.765174 -0.018495 0.520618 0.283998 0.254705 -0.110547 0.527840 0.138626 -0.197716 -0.339318 -0.344113 0.112032 0.138521 -0.776630 0.229922 0.710142 0.561204 -0.269490 0.608755 0.194872 -0.336089 0.447303 -0.114158 -0.496977 -0.171102 -0.133902 -1.006878 -0.410991 0.106294 0.102528 0.000268 0.241693 -1.069685 -0.332549 -0.620840 0.496389 -0.159119 0.208519 0.699432 -0.804652 -0.490149 0.570126 -0.305140 -0.780762 -0.223836 0.320416 -0.493917 0.400555 -1.117439 0.064596 
们 -0.187719 0.046494 0.289983 -0.473289 0.058910 -0.472192 0.818838 -0.549406 0.301287 -0.068952 0.215764 0.343436 -0.797304 -0.581336 0.179685 0.660806 -0.161492 -0.625969 -0.469330 0.339423 -0.288712 -0.256169 -0.515852 -0.615286 -0.565952 0.163153 -1.051750 -0.390036 0.044793 0.398279 -0.624605 0.434233 -0.523533 -0.269797 0.041567 0.790645 0.549130 0.097570 0.454263 -0.270363 -0.259943 0.144957 -0.800960 -0.347153 0.169931 0.643503 -0.349878 -0.041534 -0.344154 -0.590459 
n 0.800778 0.610034 0.330250 0.747945 -0.865962 -0.486558 1.017799 0.028315 -0.193571 0.421717 0.499241 0.421947 0.199257 -0.181223 1.211061 0.561955 -0.080208 -0.539424 0.544445 1.184947 0.105733 -0.033124 0.170404 -1.090964 0.038111 -0.637972 -0.508530 0.054675 -0.217346 1.022366 0.115784 -0.609436 -1.032622 -0.825967 -0.744121 -0.192799 0.664095 0.131853 0.600924 -1.570662 -1.001725 0.418696 -0.725004 -0.327804 0.369550 1.176806 -0.451948 -0.009058 0.424119 -0.003165 
能 0.107387 -0.059859 0.178975 -0.462717 -0.448011 -0.104860 0.822154 -0.558320 0.062450 -0.306271 0.467150 0.549515 -0.424982 -0.142954 -0.090854 0.866956 0.175872 -0.151099 0.065987 0.056666 -0.266927 -0.103282 -0.201169 -0.506055 -0.489419 0.466348 -0.582720 -0.260504 0.446251 0.269549 -0.396837 0.136427 -0.596110 -0.306927 0.085869 0.928531 0.538839 0.135641 0.423816 -0.207068 -0.232149 0.362463 -0.537166 -0.947875 0.413727 0.292170 -0.383248 0.014934 0.293390 -0.885835 
六 -0.293647 0.177490 0.475382 0.170566 0.001108 -0.263479 0.530056 0.431666 0.374104 -0.059426 0.817501 0.334625 -0.101916 0.193361 -0.286750 0.749801 0.260169 -0.144254 1.198299 0.295656 0.297239 0.087581 0.658862 -0.922918 -0.375400 0.169885 -0.431512 -0.371686 0.138963 0.048446 -0.101794 -0.037598 -0.270093 -0.310879 -0.804144 0.707609 0.299425 -0.221709 1.360405 -0.427247 -0.308809 0.535330 0.177789 0.347754 0.451001 -0.086051 -0.124880 0.551599 -0.466068 -0.762524 
i 0.902085 0.619049 0.435870 0.805983 -0.820168 -0.421430 1.031304 0.049172 -0.151964 0.408031 0.540084 0.365929 0.270782 -0.197166 1.316671 0.579669 -0.094048 -0.562523 0.591577 1.154022 0.170756 0.018854 0.333671 -1.129840 -0.008969 -0.666973 -0.497972 0.124015 -0.245579 0.977616 0.105341 -0.604272 -1.008776 -0.860230 -0.789506 -0.177353 0.689617 0.145006 0.673572 -1.631616 -0.996452 0.442250 -0.646211 -0.381139 0.384831 1.182196 -0.400517 0.096687 0.378099 -0.041229 
而 -0.038631 -0.306941 0.157813 -0.268139 -0.141454 -0.152557 0.638398 -0.169861 -0.074687 0.025524 0.638733 0.359827 -0.560206 -0.060619 0.029672 0.800906 -0.046698 -0.056169 0.205977 0.317962 -0.036688 0.040635 0.068133 -0.555996 -0.453135 0.217006 -0.565329 -0.288416 0.010477 0.135248 -0.207630 0.112306 -0.306000 -0.133438 -0.005578 0.579295 0.405010 0.186786 0.663838 -0.294035 -0.527271 0.501368 -0.216252 -0.146288 0.417885 0.660885 -0.247273 0.040647 0.077702 -0.510004 
下 -0.185218 -0.004384 0.328111 0.184374 -0.363277 -0.322323 0.653964 0.147755 0.021468 -0.139345 0.909356 0.570479 -0.450254 0.025894 -0.117158 0.831744 0.097126 -0.243958 0.565611 0.250800 -0.002356 -0.183576 0.377875 -0.632566 -0.601654 0.150229 -0.726750 -0.033939 0.038107 0.181247 -0.220573 0.189894 -0.400880 -0.057399 -0.209451 0.470667 0.264337 -0.086137 0.812989 -0.583068 -0.349227 0.424509 -0.087671 0.004438 0.342684 0.177690 0.193769 0.198067 0.129170 -0.701771 
可 -0.213146 -0.297574 0.325133 -0.249744 -0.420799 -0.029925 0.571118 -0.139413 0.043591 -0.133978 0.436312 0.475667 -0.532213 -0.419408 -0.185826 0.909630 -0.017832 -0.094636 0.014093 0.327300 -0.227676 -0.028880 -0.123333 -0.496336 -0.617908 0.328072 -0.760254 -0.092424 0.089782 0.351560 -0.478315 0.384756 -0.509596 -0.317588 0.139118 0.627662 0.400122 0.029793 0.510886 -0.369955 -0.388405 0.401662 -0.308219 -0.510084 0.368223 0.465375 -0.184499 0.066688 0.213443 -0.518602 
了 -0.157018 -0.177927 0.238934 -0.044331 -0.121202 -0.113524 0.542206 -0.042736 -0.069491 -0.047314 0.758778 0.551710 -0.490118 0.000623 -0.224202 1.050065 0.042795 -0.073693 0.315837 0.193722 0.028063 -0.024217 0.205664 -0.641476 -0.616491 0.289024 -0.567677 -0.149115 0.140963 0.042442 -0.324478 -0.056790 -0.260674 -0.241592 -0.087541 0.608974 0.321668 0.046594 0.778484 -0.167197 -0.407427 0.520541 0.003026 -0.175076 0.277936 0.311698 0.140609 0.355991 -0.015121 -0.734341 
5 -0.374275 -1.188788 0.636136 -0.210929 -0.214222 -0.040101 0.304375 0.357085 -1.451561 0.652065 0.958618 0.156065 0.098079 -0.789871 -0.500981 1.120492 0.760372 0.174665 0.773854 0.977107 0.050361 0.492809 1.058144 -0.706749 -0.431831 0.416626 -0.559186 -0.447059 -0.611615 0.358247 -0.125726 -0.444959 -1.080987 0.343801 -0.682143 -0.757131 0.093129 0.022631 1.251795 -0.554117 -0.734132 0.763122 0.393450 0.379307 0.734740 1.162832 -0.318006 -0.042611 0.133791 -0.129503 
布 -0.388415 -0.004324 -0.137322 0.194320 0.404772 0.041476 0.846955 -0.339927 -0.247888 -0.346258 -0.226664 -0.145085 -0.175298 -0.736224 -0.277844 0.366239 -0.107145 -0.219801 0.441082 0.229949 -0.081538 0.536754 -0.134262 -0.411758 -0.647760 0.038945 -0.466032 -0.139308 -0.459823 0.572642 -0.308062 0.032695 -1.015256 -0.628771 -0.434874 0.550262 0.090282 0.274958 1.209178 -0.294739 -0.682592 0.702153 -0.411825 -0.140205 0.335432 0.784603 -1.162526 0.014275 -0.620779 0.426765 
议 0.191819 -0.300625 0.235740 -0.080854 -0.637542 0.152483 1.036280 -0.408797 -0.834460 -0.254180 -0.194595 0.185246 -0.080887 -0.451053 -0.709239 0.734051 0.567712 -0.669765 0.496315 0.134400 0.033735 -0.078811 -0.640326 -0.120884 -0.534889 -0.317941 -0.725495 -0.434343 0.300137 0.191081 -0.590801 0.184012 -0.309954 0.199911 -0.000281 0.118612 0.598223 0.260667 0.552491 0.428501 -0.477183 1.318729 -0.195485 -0.308657 -0.094101 0.727085 -0.476944 -0.030074 -0.392331 -0.449573 
统 -0.100140 0.082592 0.124661 -0.291945 -0.197140 -0.649734 0.743692 -0.280668 -0.444038 -0.769203 -0.283780 -0.554501 -0.288635 -0.881167 -0.808046 0.976564 -0.023932 -0.352543 1.243879 0.052223 -0.192102 0.419124 -0.134663 -0.100097 0.001894 -0.329688 -0.281092 0.237120 0.420079 0.178398 0.356986 0.211093 -0.506750 -0.004401 -0.692858 0.075159 1.202464 -0.249749 0.808181 -0.188337 -0.792107 0.479190 0.303824 -0.386040 0.246915 0.744737 -0.239640 0.274523 -1.317428 -0.421374 
过 -0.158512 -0.183921 0.143661 -0.278740 -0.120308 -0.331417 0.874458 -0.211148 -0.155792 0.162436 0.637916 0.279541 -0.370278 0.071546 -0.079550 0.720691 0.136367 -0.078137 0.394647 0.253676 -0.136251 -0.004335 0.115288 -0.610964 -0.462737 0.234595 -0.681413 -0.234347 0.321667 0.322621 -0.400223 0.306807 -0.369592 -0.301843 -0.114978 0.571357 0.456903 0.150516 0.658700 -0.117930 -0.555600 0.398343 -0.245719 -0.136888 0.130145 0.503657 -0.031909 -0.122090 -0.093133 -0.550025 
o 0.860190 0.626776 0.451776 0.811605 -0.916201 -0.428897 0.997012 0.009214 -0.183641 0.430761 0.531551 0.379319 0.199501 -0.237099 1.256752 0.603121 -0.141527 -0.556079 0.592474 1.212005 0.139539 -0.040925 0.335190 -1.155512 0.043785 -0.654602 -0.501585 0.122041 -0.262039 1.059717 0.091895 -0.617031 -1.123489 -0.865231 -0.774048 -0.193055 0.740223 0.148077 0.673376 -1.669582 -1.098880 0.435004 -0.661290 -0.336540 0.449066 1.278722 -0.487620 0.064760 0.480880 0.037356 
元 0.015354 -0.083706 0.639318 0.687714 0.396248 0.035648 0.769791 0.057382 -0.180887 0.379004 0.876977 0.251384 -0.126461 0.917211 -0.012360 0.808720 0.127156 -0.031989 1.234679 0.565960 0.007226 0.181112 1.244582 -0.751675 -0.168135 0.141347 -0.152253 0.343082 -0.275301 0.731970 0.255702 -0.278795 -0.473049 -0.090954 -0.569373 0.705529 0.426248 -0.070318 1.475791 -0.731934 -0.715844 1.344241 0.128525 0.659877 0.850293 0.425716 -0.607171 0.484354 0.366627 -0.052083 
两 -0.247084 0.114175 0.373429 -0.038325 0.117371 -0.107432 0.682667 -0.096410 0.052988 -0.213669 0.568918 0.348383 -0.350902 0.310767 -0.245584 0.785260 0.257079 -0.251101 0.692091 0.206274 0.174691 0.040376 0.037873 -0.697538 -0.502455 0.132000 -0.620861 -0.174148 0.221178 -0.097723 -0.308234 0.145187 -0.279488 -0.170408 -0.288212 0.737613 0.413668 -0.041156 1.033666 -0.085962 -0.407656 0.515865 -0.028501 0.132313 0.337081 0.036735 -0.025237 0.296406 -0.515773 -0.724807 
欧 -0.049736 0.034315 0.223440 0.418471 0.447184 -0.349716 1.426044 -0.856008 -0.647605 -0.024145 -0.567791 0.095925 0.438921 0.051918 -0.130590 0.397280 -0.041841 0.017587 0.249519 0.434024 0.025093 0.271775 0.384474 -0.324974 -0.713062 -0.320940 -0.414940 -0.032495 0.113742 0.642595 -0.035741 0.242784 -0.576892 -0.209764 -0.795381 0.605506 0.567442 0.272958 1.114972 0.200807 -0.486535 1.101336 0.158925 -0.136618 0.984911 0.902414 -0.896227 0.413678 -0.442515 0.199595 
队 0.103391 0.195283 -0.024829 0.061998 -0.088437 -0.479207 0.824122 -0.112304 -0.474058 -0.434333 0.235506 0.227140 -0.588597 -0.187406 0.449769 0.525896 0.356408 -0.017694 0.863250 0.087260 0.018508 -0.246877 -0.053762 -0.826847 -0.678146 0.034589 -0.982954 0.011619 -0.165501 -0.094932 0.350897 0.008320 -0.029804 -0.039938 -0.197903 0.382378 -0.059710 -0.086370 0.763268 -0.795858 -0.480051 0.554441 0.365366 -0.113752 0.089167 0.176830 0.083122 0.647290 -0.456037 -0.334029 
达 0.232811 -0.550849 0.880372 0.452209 -0.042221 0.114974 0.048876 0.381445 -0.055778 -0.322037 0.548882 0.440582 0.150851 -0.203191 -0.232717 1.420910 0.523186 0.113484 1.085435 0.402446 -0.026913 0.441987 0.394143 -0.763755 -0.519079 0.333822 -0.534107 -0.100724 0.325035 -0.227447 -0.333985 -0.226532 -0.707735 -0.198123 -0.621320 0.304227 0.028627 0.048357 0.802618 -0.378410 -0.521720 0.401627 0.052295 -0.309483 0.013635 0.204540 0.090818 0.570726 -0.479496 -0.296577 
主 -0.137695 0.142854 0.366845 0.034855 -0.286383 -0.433649 1.106910 -0.696088 -0.403790 -0.423242 -0.199677 0.098301 -0.390041 -0.444317 -0.350946 0.794997 -0.113626 -0.838830 0.120841 -0.272158 0.062684 -0.062469 -0.374689 -0.334918 0.136179 -0.508232 -0.350723 -0.266124 0.295905 -0.048584 0.093384 0.325707 -0.662556 -0.594255 0.160702 0.407621 0.315775 -0.077252 0.851268 -0.388684 -0.177921 0.681422 -0.085122 -0.279234 -0.068019 0.633421 -0.431694 0.580703 -0.551996 -0.694566 
并 0.176656 -0.177208 0.090162 -0.239958 -0.404770 -0.276676 0.764069 -0.341822 -0.191588 -0.050116 0.406571 0.343193 -0.465656 -0.126688 0.157861 0.715825 0.018786 -0.268123 0.077042 0.537343 -0.142470 -0.093057 -0.272506 -0.393224 -0.451742 0.073104 -0.734035 -0.170865 -0.074077 0.343727 -0.301813 0.203170 -0.458144 -0.047722 0.097008 0.365691 0.570647 0.236042 0.547008 -0.221640 -0.678982 0.613966 -0.508098 -0.410257 0.330335 0.780265 -0.278541 -0.296738 0.184801 -0.242696 
得 -0.630862 0.128408 0.223669 -0.134731 -0.042442 -0.785876 0.560292 -0.171945 -0.081549 -0.300251 0.524827 0.412282 -0.425627 -0.093165 -0.080915 1.039797 -0.354840 0.009773 0.656396 -0.248659 0.358713 -0.516675 0.006575 -0.788775 -0.433364 0.399338 -0.795626 0.108606 0.311675 0.376458 0.125259 -0.256600 -0.424400 -0.394617 0.045175 0.588807 0.341177 -0.351643 0.805103 -0.427625 -0.047775 0.719014 0.118711 -0.095012 0.354267 0.346907 -0.051671 0.644804 -0.032651 -0.674740 
利 0.361692 0.000010 0.661384 0.069221 -0.021515 -0.337657 0.602898 -0.022278 -0.523251 -0.292593 0.349553 -0.185217 -0.034635 -0.629235 0.206715 0.920561 0.051994 -0.005307 0.455301 -0.089003 0.211864 0.086592 0.553111 -0.830878 -0.182673 0.098732 -0.521210 0.283771 -0.070306 0.064036 -0.104982 -0.448565 -0.620751 -0.096042 -0.290968 0.508677 0.099224 0.056156 0.612910 -0.739268 -0.242909 0.402493 0.123213 -0.419121 0.341524 0.521210 -0.205892 0.835725 -0.117671 -0.097769 
比 -0.359946 -0.074466 0.172434 0.304826 -0.171630 -0.658460 0.564249 0.278240 -0.069989 -0.135848 0.686544 0.438762 -0.456518 -0.242042 0.072159 0.773521 0.173791 0.089407 0.926599 0.243405 0.358860 -0.152069 0.603387 -0.683374 -0.596666 0.414140 -0.684557 0.078521 -0.232605 0.189112 0.019253 -0.171766 -0.348329 0.016842 -0.404142 0.618826 0.144724 -0.297018 0.963925 -0.532155 -0.446147 0.559317 0.372121 0.208539 0.409869 0.227034 0.060455 0.756056 0.014659 -0.490210 
七 -0.238212 0.057646 0.432823 0.151045 0.064473 -0.111500 0.492085 0.408533 0.303390 0.005056 0.852302 0.259464 -0.155675 0.283938 -0.354101 0.812181 0.352431 -0.053601 1.232617 0.248845 0.269984 0.157861 0.622016 -0.878218 -0.374029 0.210243 -0.407025 -0.308209 0.068998 0.000155 -0.065185 -0.002186 -0.280998 -0.207762 -0.805131 0.690336 0.316421 -0.203043 1.347547 -0.454731 -0.419069 0.595521 0.300727 0.436720 0.510775 0.039081 -0.055082 0.565938 -0.494416 -0.823772 
进 0.054056 -0.124719 0.348801 0.109339 -0.221611 0.012852 0.827495 -0.430326 -0.298045 -0.131676 0.389134 0.173612 -0.271643 0.187829 -0.215475 0.632970 0.080640 -0.254063 0.595720 0.119718 0.178316 -0.462169 -0.188133 -0.420364 -0.329420 -0.087356 -0.567003 -0.238458 0.174643 0.315230 -0.346328 0.018605 -0.046290 -0.288109 0.306541 0.720449 0.184094 -0.038277 0.919583 -0.401638 -0.286136 0.737521 -0.093349 -0.376872 0.060889 0.162259 -0.124590 0.267746 -0.540044 -0.774090 
动 0.415359 -0.429687 0.066652 -0.255906 -0.493065 0.194567 0.844773 -0.024092 -0.954616 -0.029358 0.383163 0.210233 -0.518706 -0.010196 -0.412877 0.466766 -0.086285 -0.073805 0.256253 0.158868 0.180472 -0.028780 -0.232239 -0.490962 -0.321159 -0.033079 -0.549373 -0.492283 -0.178007 0.108981 0.047014 0.296444 -0.048733 -0.124635 0.480505 0.262925 0.190136 0.129783 0.562784 -0.191701 -0.564780 0.737980 0.059105 -0.583474 0.102339 0.869426 -0.297114 0.008687 -0.160311 -0.952929 
长 0.310777 -0.079184 0.521412 0.338258 -0.241240 -0.045868 0.413361 0.014640 -0.438410 -0.288982 0.181505 -0.042666 -0.254067 -0.571469 -0.075207 1.067702 -0.091235 -0.325616 0.620683 0.089605 0.070116 -0.163967 0.078094 -0.428095 -0.323911 -0.126047 -0.602512 -0.007803 0.280394 0.051047 -0.415028 -0.135021 -0.629123 -0.302377 -0.613547 0.224784 0.377656 0.392818 0.667693 -0.204841 -0.674052 0.517354 0.063945 -0.291528 -0.044123 0.446505 -0.508698 0.268359 -0.172797 -0.083686 
第 -0.353868 0.198274 0.152719 0.266131 -0.234270 -0.332961 0.694242 0.084158 0.139412 -0.225052 0.462723 0.565494 -0.530433 -0.099169 -0.085938 0.696159 0.159781 -0.256921 0.920568 0.187650 0.196360 -0.303498 0.162427 -0.820948 -0.493120 -0.023021 -0.794373 0.069116 -0.009469 0.197381 -0.143850 -0.107081 -0.305639 -0.099271 -0.286155 0.577016 0.090317 -0.328943 1.052956 -0.589234 -0.395278 0.477635 0.292452 0.232510 0.280212 -0.061237 0.083689 0.473723 -0.225643 -0.689245 
要 -0.037159 -0.006222 0.346841 -0.051465 -0.165631 -0.496844 0.640329 -0.367617 -0.132172 -0.341722 0.206494 0.499531 -0.482153 -0.315091 -0.210910 0.753423 -0.027231 -0.540618 -0.252029 0.037193 0.049470 -0.073614 -0.322843 -0.460260 -0.569399 0.072923 -0.650041 -0.090283 0.403931 0.378087 -0.258500 0.218518 -0.606971 -0.632182 0.308852 0.666339 0.675393 -0.017336 0.456239 0.109913 -0.494408 0.571396 -0.436474 -0.526508 0.281518 0.414285 0.216247 0.316580 -0.285890 -0.917628 
亚 0.547904 0.139366 0.836989 0.110056 0.128845 -0.566804 1.003430 -0.387675 -0.163911 -0.590862 -0.318285 -0.226427 0.231625 -0.589672 0.079169 0.709112 0.134608 -0.257779 0.294068 -0.336047 0.223859 0.064633 0.555811 -0.807566 -0.288447 -0.590192 -0.699712 0.067871 -0.229878 -0.307671 -0.117596 0.105651 -0.852090 0.009931 -0.743668 0.756298 0.090027 -0.094430 0.912127 -0.518378 0.093625 0.359496 -0.032907 -0.153214 0.558993 0.621780 -0.154079 1.069639 -0.699315 -0.106422 
本 -0.033547 0.562501 0.352386 0.019648 -0.213769 -0.154117 0.827372 -0.150543 0.172683 0.353340 0.411753 -0.014403 0.042642 0.030113 0.021920 0.084645 0.031968 -0.471734 0.223148 0.304759 0.264284 -0.152015 0.300433 -0.702579 0.067889 -0.177775 -0.830157 -0.115061 -0.043044 0.673547 -0.351113 -0.101690 -0.564108 -0.334446 -0.215846 0.850239 0.495620 -0.108862 1.042879 -0.503961 -0.257390 0.433400 -0.183826 0.058422 0.636436 0.171103 -0.382816 0.067957 -0.403719 -0.864493 
生 0.466301 -0.159222 0.346662 -0.764758 -0.542749 0.463587 0.407828 0.009288 -0.434512 -0.016183 0.427595 0.266634 -0.842867 -0.065924 -0.153925 0.235634 0.124364 0.244235 0.394445 -0.238973 0.392238 0.140272 -0.398892 -0.683701 -0.516326 -0.058042 -0.273811 -0.733652 0.018154 -0.221251 -0.010802 -0.127858 0.007539 -0.416853 0.382998 0.643138 0.115746 0.208389 0.875633 -0.334917 -0.692061 0.158315 -0.103511 -0.052385 0.208928 0.920554 -0.029948 0.661813 -0.314106 -0.880584 
项 -0.079126 0.105339 0.239609 -0.258396 -0.349581 0.056260 1.068224 -0.243692 -0.074935 -0.088321 -0.077862 0.260537 -0.444009 -0.212008 -0.239439 0.378367 -0.044004 -0.624368 0.285792 0.248476 0.325867 -0.119570 -0.428670 -0.436008 -0.213978 -0.222615 -0.644704 -0.257266 0.291392 0.153069 -0.439456 -0.005848 -0.045514 -0.241564 0.041835 0.634761 0.576975 0.040052 0.780061 -0.047160 -0.614048 0.689464 -0.541731 0.010191 0.236709 0.408071 -0.285842 -0.037328 -0.419577 -0.759623 
司 0.426244 0.937475 0.131270 0.297163 -0.408243 0.439679 0.681904 -0.366294 -0.379093 0.265709 0.677033 -0.267853 -0.117650 -0.064221 0.616703 0.142868 -0.329327 -0.158712 0.338353 0.807595 0.552077 0.315585 -0.033487 -0.814998 0.636331 0.247856 -0.492635 0.081897 -0.348266 0.271739 0.078803 -0.328198 -0.564390 -0.381028 0.059894 0.653826 0.434820 -0.081694 1.034238 -1.012156 -1.223535 0.360296 -0.525950 -0.220173 0.560373 0.610328 -0.144363 -0.174343 0.215111 -0.457369 
方 0.503889 -0.087220 0.413093 -0.337243 -0.357021 0.118201 1.146239 -0.528339 -0.332617 -0.323352 0.054770 -0.257099 -0.668996 -0.074017 -0.122825 0.313857 0.205097 -0.606740 0.183654 -0.126013 0.148167 -0.205580 0.009553 -0.466775 -0.523819 -0.157127 -0.783339 -0.555447 -0.122232 -0.053037 -0.363277 0.234175 -0.102349 -0.224098 0.210358 0.551755 0.139669 0.220984 0.737188 -0.086247 -0.656160 0.394008 -0.336012 -0.314702 0.204487 0.348793 -0.235810 -0.269976 -0.601078 -0.679630 
r 0.851244 0.512022 0.421878 0.766545 -0.898604 -0.457929 0.989194 0.039343 -0.238011 0.404940 0.491549 0.416841 0.223016 -0.325054 1.241431 0.645971 -0.094001 -0.540906 0.630065 1.166668 0.039188 0.033386 0.286979 -1.093632 0.017494 -0.658237 -0.476725 0.101221 -0.272533 0.978671 0.150695 -0.632019 -1.086740 -0.831403 -0.780018 -0.271456 0.642386 0.145917 0.573862 -1.656026 -1.041011 0.417182 -0.680101 -0.433700 0.349046 1.285964 -0.450550 0.048903 0.425570 0.067831 
地 0.439387 -0.525104 0.628927 0.114746 -0.139145 0.381258 0.445633 -0.164494 -0.446249 -0.493212 -0.105479 -0.096941 -0.252931 -0.133508 0.059775 0.232699 0.585522 0.111195 0.399933 -0.171103 0.298607 0.074808 0.014896 -0.406162 -0.626917 0.129303 -1.011546 -0.326069 0.056159 -0.261841 -0.448557 0.081111 -0.213530 -0.363314 -0.107028 0.693348 0.278816 0.117191 0.849894 -0.293751 -0.604781 0.380461 0.221766 -0.448340 0.368605 0.321055 0.119369 0.530723 -0.810447 -0.638243 
八 -0.351731 0.165438 0.524269 0.216761 0.093459 -0.209881 0.483477 0.402667 0.445343 -0.040683 0.751830 0.254840 -0.093966 0.222237 -0.371538 0.745742 0.238830 -0.128448 1.117321 0.330109 0.274130 0.134383 0.781044 -0.919268 -0.378735 0.153937 -0.345173 -0.408011 0.025937 0.077801 -0.137956 0.051513 -0.430658 -0.350360 -0.887060 0.774028 0.316364 -0.175481 1.489137 -0.387561 -0.349143 0.538417 0.148359 0.512545 0.561730 0.015747 -0.122252 0.605747 -0.497866 -0.775848 
开 -0.366190 -0.087086 -0.037862 -0.243922 -0.480940 -0.071810 0.877920 0.142290 -0.433711 0.001647 0.320786 0.139436 -0.310173 -0.318100 -0.368216 0.543063 0.203137 0.052561 0.615540 0.289299 0.273961 0.066239 -0.040028 -0.354596 -0.382865 0.070839 -1.222468 0.149440 -0.279408 -0.004559 -0.439528 0.339147 -0.068158 0.054762 0.320710 0.659216 -0.032534 -0.279824 1.030034 -0.109455 -0.902383 0.953844 0.287934 -0.121946 -0.048091 -0.067819 -0.321639 -0.045313 -0.498992 -0.534953 
球 0.010135 0.488417 0.053607 0.056835 -0.616539 -0.192519 0.786675 0.007688 -0.320509 -0.101833 0.268620 0.248424 -0.426969 0.016992 0.547645 0.407001 0.027133 -0.142706 0.610915 -0.052399 0.363888 -0.427343 0.072720 -0.683981 -0.404068 -0.057261 -0.793693 0.314205 -0.056658 0.284410 0.042928 -0.498475 -0.006916 -0.218052 0.162559 0.705880 0.316602 -0.129800 0.828683 -0.902026 -0.503267 0.734922 0.313516 -0.028715 0.334210 0.082854 0.037821 0.463878 -0.293468 -0.520011 
我 -0.213592 -0.168018 0.209560 -0.508761 0.098554 -0.452308 1.088778 -0.397898 0.276325 -0.138639 0.148107 0.383783 -0.883702 -0.831854 0.193837 0.685207 -0.183297 -0.641574 -0.679772 0.524926 -0.285414 -0.009625 -0.523081 -0.730406 -0.405357 0.192963 -1.252639 -0.376189 -0.123580 0.532788 -0.685219 0.330539 -0.623054 -0.203403 0.061893 0.621008 0.411180 0.068939 0.290174 -0.357450 -0.311187 -0.045538 -0.686128 -0.209851 0.215795 0.771405 -0.395728 -0.296191 -0.170349 -0.509550 
赛 -0.465530 0.104637 -0.257202 0.166876 -0.559174 -0.653642 0.769548 -0.015820 -0.678052 -0.325256 0.420140 0.255131 -0.637769 -0.349576 0.173914 0.515758 0.045384 0.103813 1.044346 0.222493 0.214173 -0.521309 0.130746 -0.464893 -0.578561 0.360733 -1.269758 0.444630 -0.148327 0.268643 0.148022 -0.282110 -0.225516 0.272389 0.125905 0.452229 0.227585 -0.401742 1.054324 -0.824044 -0.530236 0.770002 0.661125 0.311375 0.567492 -0.075239 0.207832 0.396875 0.123399 -0.346343 
场 -0.146903 0.166340 -0.005883 0.265622 -0.263352 -0.226115 0.812862 0.068582 -0.149661 -0.006248 0.570941 0.390787 -0.616197 -0.069487 -0.120781 0.423221 0.148488 -0.111315 0.419884 0.375860 0.208145 -0.153500 0.064635 -0.552792 -0.464374 -0.005544 -0.920216 0.034954 0.005457 0.257249 -0.246943 0.043909 -0.051420 -0.188248 0.016797 0.715114 0.264745 -0.327088 0.819974 -0.466742 -0.736325 0.580668 0.132570 -0.060390 0.229785 0.125865 0.140289 0.239610 0.012592 -0.650174 
政 0.404972 0.501570 0.984202 -0.065237 -0.724146 -0.261217 0.640502 -0.428149 -0.331565 -0.362655 -0.525877 -0.300932 -0.716244 -0.690563 -0.236184 0.852934 -0.330971 -0.393596 0.274509 -0.215717 -0.023937 -0.189750 0.204270 0.154620 -0.356918 -0.727493 -0.382714 0.056369 -0.337201 0.145059 -0.340312 0.584898 -0.201760 -0.623423 0.051682 0.466732 0.798797 0.075831 0.645079 0.229528 -0.698923 0.399850 0.094905 -0.193091 0.203912 0.524390 -0.803694 0.461191 -0.636447 -1.305709 
及 0.477884 -0.075616 0.646873 0.120480 0.094005 -0.402618 0.579008 -0.423731 -0.652080 -0.278043 0.103112 -0.301293 0.337761 -0.341249 -0.137017 0.815547 0.824782 -0.451506 0.592774 0.213903 0.165390 0.278452 0.020879 -0.271298 -0.418394 -0.081074 -0.648076 -0.513416 0.294851 -0.266859 -0.047970 -0.001127 -0.490481 -0.131358 -0.226519 0.480217 0.544305 0.066974 0.526412 -0.204744 -0.478384 0.539377 0.006792 -0.452046 0.033935 0.406393 -0.445318 0.041798 -1.062097 -0.573278 
南 0.149181 -0.216440 0.551815 0.000079 0.679968 -0.045026 1.097459 -0.083833 -0.269972 -0.558076 -0.105631 -0.384925 -0.005315 -0.402409 -0.351421 0.360598 0.150152 -0.394444 0.319093 0.036011 -0.104301 0.454315 0.241256 -0.587083 -0.105112 0.158471 -1.004367 -0.189625 0.009606 0.099211 -0.420119 -0.032282 -0.837130 -0.053960 -0.457316 0.659798 0.546318 0.249833 0.802114 -0.107637 -0.476082 0.508342 -0.045625 -0.318621 0.167810 0.156141 -0.252027 0.443414 -1.412897 -0.256357 
) 0.217473 0.600722 0.336505 0.711354 -0.358536 -0.462174 0.873404 0.120510 0.269737 0.309890 0.805603 0.446731 0.035730 0.325922 0.670679 0.511704 0.001680 -0.567012 0.832531 1.004820 0.166166 -0.118805 0.497321 -1.086647 0.027608 -0.307083 -0.305116 0.020270 -0.153818 0.875034 0.062426 -0.183034 -0.754975 -0.616374 -0.743328 0.072024 0.575535 0.002150 0.903542 -1.258930 -0.889948 0.511078 -0.621889 0.290102 0.516909 0.671787 -0.590514 -0.086125 0.354605 -0.159466 
最 -0.100655 -0.128964 0.207495 0.043680 -0.314730 -0.241074 0.644806 -0.054032 -0.164889 -0.036598 0.415849 0.440830 -0.524808 -0.123492 -0.235901 0.796213 0.006197 -0.239467 0.462044 0.085080 0.113514 -0.199280 0.071224 -0.491238 -0.406278 0.088834 -0.659907 -0.000253 0.049450 0.165408 -0.335104 0.141334 -0.218041 -0.026403 0.112213 0.698926 0.369011 -0.111896 0.801787 -0.344156 -0.451865 0.743608 0.061778 -0.106339 0.351601 0.184499 -0.053542 0.221179 0.019446 -0.727232 
t 0.816559 0.620172 0.403664 0.710708 -0.930987 -0.407905 0.974905 0.006722 -0.108648 0.459827 0.547285 0.421443 0.104140 -0.126225 1.157781 0.614745 -0.193529 -0.595912 0.489973 1.066519 0.138420 -0.036353 0.228877 -1.050754 0.018022 -0.651651 -0.491620 0.113105 -0.222850 1.056101 0.098222 -0.602977 -0.963054 -0.840060 -0.658143 -0.129204 0.722259 0.152730 0.572163 -1.519221 -1.015167 0.376824 -0.738703 -0.398660 0.388129 1.197302 -0.401341 0.005118 0.472396 -0.100188 
( 0.630404 0.647263 0.534931 0.926424 -0.447886 -0.260574 0.617976 0.250045 0.197883 0.168298 0.500519 0.289641 0.494291 -0.167288 0.940412 0.745601 0.151390 -0.323621 1.012087 0.970672 0.193096 0.316074 0.678182 -1.170360 -0.015004 -0.529345 -0.374823 0.003962 -0.155350 0.532640 0.113895 -0.560029 -0.893110 -0.743692 -1.298457 -0.057658 0.457044 0.010036 0.810657 -1.306242 -0.716215 0.361867 -0.320663 -0.166643 0.438802 0.803618 -0.182114 0.596228 -0.059690 -0.072257 
部 0.718477 0.165373 0.904890 0.087547 -0.372855 0.409758 0.667804 -0.307648 -0.449581 -0.067930 -0.031970 -0.369794 -0.268789 -0.214759 0.136959 0.350653 0.116893 -0.378019 0.391033 -0.191718 0.388497 -0.043706 -0.093625 -0.425731 -0.147012 -0.057417 -0.744427 -0.188629 0.131934 -0.039075 -0.177554 -0.292382 -0.324944 -0.107593 -0.213267 0.475016 0.428693 0.267202 0.789572 -0.316312 -0.684475 0.355796 0.030436 -0.042269 0.015395 0.566397 -0.245771 0.281768 -0.749747 -0.498571 
也 -0.110349 0.088845 0.246929 -0.050088 -0.165264 -0.259917 0.723906 -0.233579 0.073506 -0.151984 0.449707 0.367338 -0.561514 -0.184516 0.009089 0.666805 0.010701 -0.293947 0.108445 0.397599 -0.045231 -0.161904 -0.041523 -0.650168 -0.411846 0.084856 -0.651147 -0.150055 0.084029 0.254642 -0.282604 0.280170 -0.569655 -0.272578 -0.150309 0.653255 0.377961 0.072995 0.688828 -0.314171 -0.461759 0.297003 -0.393886 -0.172803 0.406887 0.501497 -0.251686 0.013810 -0.057200 -0.459054 
力 0.554612 -0.764732 -0.044436 -0.209383 -0.536246 -0.032524 0.968939 0.005715 -0.436251 -0.489044 0.237064 0.107394 -0.707684 -0.041012 -0.559496 0.612954 0.113469 0.063341 -0.087596 0.228508 0.107039 0.125362 -0.212313 -0.153793 -0.808754 0.154606 -0.447441 -0.442989 -0.158067 -0.196608 -0.404579 0.324604 -0.136393 -0.393000 0.580100 0.383104 -0.052844 0.213088 0.525582 -0.338823 -0.257155 0.977877 -0.405238 -0.765369 0.050313 0.782147 -0.153461 0.368601 -0.443200 -0.982362 
民 -0.143935 0.052901 0.336480 0.021206 -0.013754 -0.306068 1.117584 -0.479601 -0.034316 -0.410671 -0.124246 -0.052050 -0.692380 -0.233443 -0.484492 0.724913 -0.234177 -0.556141 0.413344 -0.259859 0.049691 0.287611 -0.060554 -0.540172 -0.273671 -0.416108 -0.323630 -0.194124 0.209431 -0.071532 -0.096360 0.484778 -0.343747 -0.353197 -0.084413 0.951819 0.105601 0.115667 0.765532 0.021394 -0.359958 0.588883 -0.128029 -0.096788 0.296583 0.653188 -0.264662 0.726360 -0.438336 -0.634065 
选 -0.598887 -0.148170 -0.107077 -0.137944 -0.061799 -0.629844 1.186459 -0.185321 -0.196373 -0.976992 0.033489 -0.070119 -0.733536 -0.455185 -0.448346 0.885096 0.152851 -0.525740 1.178174 -0.256316 -0.059611 0.232722 -0.101879 -0.524095 -0.329498 -0.469955 -0.238821 0.581463 0.395679 0.141571 0.407438 0.155143 -0.161028 -0.186021 -0.258017 0.449212 0.696222 -0.372984 0.904845 -0.287752 -0.273881 0.732852 0.289109 -0.203987 0.190556 0.493838 -0.001357 0.457565 -0.613471 -0.497333 
合 0.092086 0.243350 0.171733 0.057655 -0.447693 0.162194 1.022156 -0.396237 -0.963399 0.027127 -0.246809 0.091491 -0.040956 -0.055504 0.043665 0.290488 -0.114934 -0.621864 0.655409 0.407209 0.135729 -0.181531 -0.259877 -0.423222 -0.000717 -0.334757 -0.702766 0.014387 -0.278170 0.642883 -0.021604 -0.023932 -0.190360 -0.164326 0.227867 0.016525 0.567672 -0.100941 0.761012 -0.533878 -0.845072 0.988191 -0.437510 0.161840 0.062330 0.473463 -0.683382 -0.048531 -0.110021 -0.640040 
北 0.001227 -0.088343 0.778018 -0.030884 0.527803 0.423882 0.993147 -0.243987 -0.368852 -0.354487 0.162800 -0.465735 -0.008364 -0.089776 -0.598794 0.795578 0.405152 -0.649415 0.204918 -0.007814 -0.034622 0.587493 0.461240 -0.462301 0.102950 0.167418 -0.958539 -0.378466 -0.024900 0.470114 -0.949758 -0.032166 -0.615536 0.267897 -0.111450 0.614031 0.506581 -0.045068 0.900285 0.217788 -0.436362 0.655974 0.047234 -0.147428 0.489096 0.026562 -0.628805 -0.077643 -1.185772 -0.660934 
s 0.801523 0.610695 0.447027 0.736755 -0.865087 -0.394208 0.956618 0.035294 -0.176230 0.491657 0.577937 0.372471 0.220588 -0.256630 1.253174 0.597499 -0.110353 -0.546623 0.486693 1.120959 0.115941 0.003615 0.293850 -1.133908 0.031235 -0.618001 -0.485461 0.093336 -0.272507 1.030432 0.062874 -0.664625 -1.035555 -0.811436 -0.696252 -0.191340 0.704109 0.145712 0.614353 -1.572403 -0.999940 0.379832 -0.682418 -0.331269 0.404569 1.235275 -0.413001 0.042179 0.433664 -0.098153 
所 0.305913 0.169120 0.283221 -0.231303 -0.472151 -0.081804 0.860208 -0.229302 -0.003825 0.038412 0.236669 0.174808 -0.389590 0.072080 0.067553 0.492784 -0.138235 -0.261657 0.178678 0.209368 0.146005 -0.062226 -0.330560 -0.618141 -0.191937 -0.055277 -0.549273 -0.335176 0.071479 0.111760 -0.320359 0.144338 -0.241544 -0.409607 0.123588 0.791676 0.550488 0.154980 0.566223 -0.339496 -0.482835 0.446348 -0.395490 -0.309073 0.410194 0.642670 -0.128144 0.035743 -0.104757 -0.647223 
此 -0.075721 -0.216972 0.194405 -0.368968 -0.137748 0.032651 0.703152 -0.248793 -0.070621 -0.065928 0.424268 0.370261 -0.686385 -0.282435 -0.295586 0.748634 0.087341 -0.345420 0.167306 0.219847 -0.061913 -0.172068 -0.359689 -0.501620 -0.423399 0.044122 -0.688810 -0.466823 0.185041 0.120112 -0.467066 0.155097 -0.259785 -0.176226 0.043999 0.694672 0.432131 0.013124 0.634440 -0.071289 -0.394133 0.485572 -0.251938 -0.126153 0.274062 0.460535 -0.176372 -0.025511 -0.209506 -0.760211 
周 0.105658 0.539344 0.201329 0.483221 -0.239527 -0.255357 0.697134 0.022308 0.320211 -0.065820 0.605189 0.355145 -0.185392 0.046795 0.089577 0.439891 0.094005 -0.457953 0.514951 0.589808 0.190385 -0.144048 0.074764 -0.707348 -0.294880 -0.266240 -0.615364 -0.246241 0.047374 0.406738 -0.255987 0.315665 -0.520497 -0.424217 -0.510478 0.536986 0.188412 -0.096381 0.933442 -0.603688 -0.509543 0.485338 -0.404946 0.040251 0.176791 0.103861 -0.346864 0.094913 -0.309301 -0.696576 
因 -0.003976 -0.193383 0.380717 -0.392633 -0.244652 -0.133649 0.479587 -0.104693 0.007162 0.075235 0.572230 0.452962 -0.690126 -0.182930 -0.160325 0.750556 -0.041719 -0.040044 0.018474 0.126505 0.133706 -0.155531 -0.199890 -0.582539 -0.469432 0.276045 -0.593893 -0.341593 0.105115 0.207756 -0.226902 0.017720 -0.528669 -0.280733 0.135249 0.831189 0.488092 0.194159 0.554053 -0.247178 -0.409177 0.358235 -0.261549 -0.259418 0.309969 0.707959 -0.001209 0.058617 0.107909 -0.670623 
机 0.612078 -0.244660 0.479020 -0.335321 -0.400810 0.641248 0.615723 -0.330300 -1.037894 0.126125 0.612693 0.354250 -0.229077 -0.388863 0.183644 0.368996 0.447109 -0.006176 0.460697 -0.090069 0.112415 0.100488 -0.498647 -0.396145 -0.412475 0.056129 -0.640138 -0.225220 0.190745 -0.467284 -0.088532 -0.223518 -0.159656 0.148569 0.020608 0.359549 0.653556 0.234922 0.411331 -0.619078 -1.094548 0.762345 -0.072402 -0.561372 0.284373 0.405250 0.040020 -0.002242 0.080224 -0.201186 
勒 0.939795 -0.626982 0.654042 -0.492054 0.530069 -0.188973 0.736588 0.316207 -0.317491 -0.560043 0.645476 -0.059686 -0.013745 -0.308382 -0.123694 0.128849 0.589797 -0.469222 0.379389 0.307847 0.072830 0.345010 -0.307886 -0.444929 -1.064432 -0.067067 -0.975040 -1.192105 -0.678866 -0.822852 -0.079284 0.265349 -0.143144 -0.702977 -0.639542 0.407130 -0.009230 0.158599 1.076303 0.142631 -0.342243 0.753358 -0.131469 -0.141106 -0.541579 0.565563 0.068537 1.286640 -1.256202 -0.314760 
德 0.293101 0.136312 0.635615 0.041092 0.062537 -0.286718 0.465409 -0.009530 -0.282151 -0.196779 0.029900 -0.292157 0.105620 -1.154250 0.177962 0.607031 0.293817 -0.287916 0.259370 0.398770 0.090569 0.488055 0.267005 -0.768026 -0.122833 -0.281616 -0.610261 -0.218317 -0.353334 0.222958 -0.210608 -0.217398 -0.932145 -0.229581 -0.552654 0.175353 0.234472 -0.160177 0.719724 -0.821000 -0.186420 0.372915 -0.014570 -0.207690 0.218538 0.613220 -0.319759 0.655306 -0.784128 -0.328672 
外 0.275250 0.078952 0.581946 -0.044507 -0.065419 0.030001 0.699449 -0.346526 -0.438172 -0.067935 0.015379 -0.167657 -0.146288 -0.023230 -0.016874 0.604597 0.149012 -0.272394 0.452233 -0.073192 0.119529 -0.014906 0.059896 -0.511042 -0.256658 -0.013528 -0.679252 -0.127765 -0.057370 0.103147 -0.209744 -0.114984 -0.202373 -0.239792 0.056567 0.634314 0.456596 0.100316 0.875592 -0.191498 -0.622718 0.561307 0.083823 -0.132827 0.194996 0.345020 -0.353095 0.238820 -0.533692 -0.577440 
现 -0.269654 -0.076856 0.089615 -0.397481 -0.158663 -0.087941 0.618951 -0.095426 0.027014 0.060836 0.538491 0.344310 -0.812875 -0.084073 -0.284209 0.665148 -0.108545 -0.148035 0.202698 0.171253 -0.012961 0.076608 -0.182593 -0.760421 -0.223154 0.246218 -0.509420 -0.246481 0.035780 0.180106 -0.339192 -0.007974 -0.359189 -0.292080 -0.026950 0.619581 0.383138 0.067096 0.798388 -0.505202 -0.465755 0.174532 -0.319506 -0.049423 0.554520 0.582816 -0.185271 -0.059289 -0.027041 -0.639136 
列 0.675914 -0.564700 0.169420 -0.281542 0.224079 -0.392676 1.151322 -0.313129 -0.770040 -0.564670 0.456282 -0.252852 0.044478 -0.061318 -0.269842 0.633638 0.904014 -0.673315 0.718954 0.364982 0.033759 0.423630 -0.574216 -0.281666 -1.006401 0.340857 -0.966562 -0.951751 -0.043647 -0.629737 0.394235 0.178502 -0.006532 -0.043212 -0.388057 0.586630 0.048860 0.226740 0.678495 0.112859 -0.289069 0.874702 0.067540 -0.075956 -0.653795 0.369696 0.054282 0.203110 -1.258493 -0.924599 
事 0.429078 -0.440282 0.242101 -0.218406 -0.466674 0.397504 0.944669 -0.335542 -0.662729 0.031360 0.186682 0.212010 -0.506138 -0.124237 0.228567 0.374118 0.206775 -0.183747 0.162130 0.276885 0.022923 -0.065226 -0.378411 -0.389779 -0.616188 -0.317608 -0.645127 -0.332993 -0.330246 -0.069930 -0.327671 0.026509 0.148549 -0.184093 0.179917 0.220555 0.348522 0.202938 0.394246 -0.425878 -0.781349 0.615617 -0.175234 -0.505204 0.099675 0.829401 -0.308877 -0.294662 -0.237513 -0.585212 
联 -0.030822 0.341343 0.096914 0.212477 0.340808 -0.233951 1.330644 -0.816658 -0.826144 -0.552832 -0.730316 0.000080 0.266944 -0.036483 -0.069893 0.466946 -0.069718 -0.525312 0.400147 0.084010 0.434145 -0.091946 -0.106094 -0.433781 0.013808 -0.761306 -0.829428 -0.078692 0.031266 0.621051 0.245016 0.088266 -0.321689 -0.083542 -0.328012 0.541279 0.321465 -0.406226 1.075583 -0.075837 -0.421538 1.249555 0.436164 0.179337 0.575097 0.689438 -0.718094 0.797059 -0.466993 -0.571302 
韩 0.222012 -0.081506 0.503558 -0.130717 0.153508 0.033099 0.878791 -0.437060 -0.098777 -0.323940 -0.104734 -0.399386 -0.153679 0.071589 -0.277448 0.556340 0.348168 -0.854745 0.715300 -0.101452 -0.012626 0.235779 0.478324 -0.562852 0.072923 0.104370 -0.961449 -0.310441 0.242156 0.479897 -0.503194 0.267066 -0.431878 0.241836 -0.166918 0.831492 0.325987 -0.238296 1.113181 0.316185 -0.468217 0.789168 -0.026787 -0.104082 0.500552 0.102858 -0.730546 0.084896 -1.050111 -0.432125 
手 -0.007754 -0.204069 0.247398 -0.216329 -0.147593 -0.447709 0.705476 -0.087895 -0.580596 -0.316981 0.306120 0.048073 -0.702759 -0.349191 0.368915 0.688685 0.027905 -0.002507 0.630221 0.014214 -0.074835 0.140793 0.003954 -0.531626 -0.535815 -0.005707 -0.549407 0.295695 -0.081128 0.153990 0.183223 -0.197068 -0.269290 -0.244809 0.083507 0.376783 0.412263 -0.046319 0.658298 -0.669743 -0.572008 0.370873 0.349367 -0.187202 0.296201 0.408315 0.013591 0.509259 -0.277218 -0.301104 
报 -0.001355 0.214684 0.042034 -0.042664 -0.525680 0.023563 0.745779 0.169995 -0.286357 0.374827 -0.005314 -0.271401 -0.553152 -0.160187 0.334242 0.004029 -0.039871 -0.281232 0.150019 0.408453 0.128278 0.459242 0.126035 -0.891455 0.163870 -0.351702 -0.590083 -0.887059 -0.117942 0.289609 -0.559496 0.518832 -0.693613 -0.538206 -0.206097 0.360473 0.239985 0.200123 0.906525 -0.447499 -0.966271 0.201396 -0.846312 0.149095 0.893325 0.575322 -0.467958 -0.537771 -0.365252 -0.407225 
但 -0.224144 -0.274302 0.116307 -0.255474 -0.083653 -0.197994 0.676094 -0.236995 -0.143951 0.028090 0.579975 0.385735 -0.690064 -0.405194 -0.114275 0.766677 0.045163 -0.211809 -0.003020 0.417349 -0.086695 0.023756 -0.082588 -0.451529 -0.413211 0.292536 -0.795188 -0.305322 0.124645 0.300884 -0.382842 0.205796 -0.500591 -0.069274 0.009124 0.555080 0.480914 0.153448 0.597844 -0.240954 -0.506275 0.450422 -0.235816 -0.076005 0.386531 0.619011 -0.198341 -0.118589 0.063428 -0.459336 
全 0.245387 0.237458 0.287769 0.012662 -0.303844 -0.092399 0.827532 -0.173858 -0.068214 -0.107810 -0.063004 0.236105 -0.502420 0.045751 0.138849 0.445392 -0.123943 -0.331895 0.299754 0.073943 0.210769 -0.172447 -0.117911 -0.705680 -0.413425 0.078607 -0.723075 -0.241730 0.076314 0.228811 -0.397508 -0.174777 -0.068638 -0.278793 0.281035 0.812847 0.534743 0.030174 0.751190 -0.239570 -0.583743 0.665914 0.035871 -0.224468 0.145031 0.049918 0.025159 0.182716 -0.569420 -0.741573 
自 0.076178 -0.092657 0.215135 -0.405237 0.044851 -0.122311 0.616010 -0.305441 -0.135745 -0.143537 0.058095 0.125937 -0.445142 -0.221987 -0.135313 0.660979 0.132227 -0.213760 0.316982 0.061602 0.105906 -0.039779 -0.097299 -0.519104 -0.542179 0.092813 -0.876159 -0.404129 -0.001547 0.196879 -0.358902 0.167569 -0.243040 -0.313207 -0.142908 0.617166 0.293547 0.054069 0.962829 -0.231547 -0.241777 0.418121 0.024104 -0.011732 0.156334 0.340854 0.010360 0.341168 -0.535071 -0.789841 
者 0.208374 -0.198832 -0.070816 -0.380149 -0.437581 0.163042 0.647652 -0.133353 -0.370396 -0.134581 0.430259 0.193949 -0.235148 -0.292526 0.306870 0.584160 0.247961 -0.266469 -0.326723 0.319173 -0.082115 0.237581 -0.289760 -0.671383 -0.284658 -0.022444 -0.529009 -0.349926 0.161915 0.078870 -0.134711 -0.195247 -0.685788 -0.198392 0.029231 0.316033 0.275573 0.558982 0.653032 -0.050484 -0.788613 0.490442 -0.696288 -0.066895 0.213172 1.054245 -0.182799 -0.129777 -0.287583 -0.443224 
其 0.171281 0.139458 0.343713 -0.180468 -0.096242 -0.219316 0.673464 -0.313439 -0.166125 -0.080106 0.366303 0.246199 -0.377309 0.057103 0.059834 0.684005 -0.027394 -0.143517 0.336926 0.089027 0.100180 -0.024786 0.018259 -0.505002 -0.270584 0.031201 -0.460326 -0.165968 0.113791 0.187554 -0.194370 -0.024499 -0.345900 -0.308850 -0.068436 0.806513 0.579838 0.193096 0.697193 -0.227975 -0.463137 0.506799 -0.108023 -0.180850 0.281095 0.570659 -0.233820 0.139046 -0.237373 -0.549810 
色 0.584735 -0.525867 0.196253 -0.352999 0.224412 -0.375676 1.265525 -0.364413 -0.388399 -0.415863 0.471669 0.038536 0.157543 0.038742 -0.325408 0.769321 0.849023 -0.666917 0.574668 0.459828 0.001434 0.653530 -0.577544 -0.068142 -0.849125 0.509822 -0.803935 -1.256385 0.316646 -0.730765 0.196572 0.118897 -0.119872 0.036780 -0.210284 0.486056 0.168296 -0.047376 0.367259 0.175376 -0.514278 1.022017 0.158448 -0.337953 -0.346733 0.250023 -0.197994 0.197296 -1.505807 -1.177940 
业 0.580058 0.356536 0.238202 0.041275 -0.630720 0.234082 0.660424 -0.325992 -0.446794 0.332783 0.348089 0.139936 -0.001757 0.264908 0.730232 0.435999 -0.368572 -0.041299 0.040551 0.275951 0.452232 -0.105190 0.223782 -0.998910 0.286073 0.151649 -0.615882 0.041834 -0.135384 0.415144 -0.231442 -0.470740 -0.223159 -0.284922 0.325828 0.670179 1.047502 -0.014574 0.680963 -0.588988 -1.090666 0.636555 -0.206032 -0.312075 0.205567 0.767037 0.118254 -0.030689 0.521929 -0.624914 
军 0.189283 -0.361322 -0.123652 -0.306139 -0.250579 -0.403437 1.037515 -0.287090 -0.983317 -0.308550 0.268467 -0.266619 -0.417949 -0.009948 0.057929 0.325842 0.186654 -0.049833 0.839733 0.081967 0.082429 -0.343430 -0.260696 -0.258489 -0.434268 0.354474 -1.328997 -0.045772 -0.347949 -0.340718 0.387143 -0.291763 0.083881 0.159917 0.153499 0.117024 0.087744 -0.000878 0.762649 -0.746405 -0.626757 0.793598 0.527061 0.166962 0.214510 0.209389 0.042348 0.481363 -0.712365 -0.618406 
点 -0.196049 -0.220159 0.426496 0.480591 -0.230984 -0.054480 0.440192 0.467545 0.170857 0.194879 1.328549 0.577904 -0.538203 0.508988 -0.373492 1.057826 0.161725 -0.042753 1.092842 0.491556 0.243471 0.214401 0.994330 -0.825252 -0.522614 0.467883 -0.401762 -0.128570 0.056068 0.170495 -0.121494 -0.081413 -0.238931 -0.209799 -0.707039 0.626526 0.303114 -0.102792 1.279029 -0.482754 -0.738687 0.614865 0.162378 0.483541 0.608628 0.054986 0.012804 0.437051 0.284164 -0.538126 
同 -0.220441 -0.141169 0.400484 0.259454 -0.296325 -0.242229 0.750403 -0.098234 0.050187 -0.021675 0.492195 0.373663 -0.388666 -0.007806 -0.207772 0.643479 0.031323 -0.277696 0.487695 0.290542 0.059802 -0.266678 0.119031 -0.535137 -0.442741 0.117955 -0.482450 -0.255260 0.143565 0.295941 -0.568542 0.061754 -0.534734 -0.365980 -0.031763 0.689171 0.370282 0.011954 0.720198 -0.075849 -0.459027 0.555716 -0.296291 -0.212199 0.296100 0.374615 -0.123739 -0.006486 -0.121458 -0.525431 
万 -0.148173 0.078186 0.543961 0.284300 0.249904 0.009300 0.607166 0.301641 0.082759 0.390361 0.979294 0.385796 0.001545 0.811055 -0.058042 0.857336 -0.029325 0.109233 1.258758 0.605874 0.439946 0.258245 1.070991 -1.106740 -0.369669 0.343911 -0.057562 -0.175973 0.012869 0.120345 0.184496 -0.389892 -0.437864 -0.431850 -0.851727 0.554431 0.515079 0.170830 1.388541 -0.578397 -0.691748 0.662410 -0.087656 0.597179 0.720006 0.326219 -0.015702 0.550231 -0.005050 -0.452896 
l 0.758249 0.639840 0.426542 0.840532 -0.854204 -0.423843 0.999556 0.046284 -0.154278 0.446873 0.582267 0.446738 0.199793 -0.119604 1.276556 0.620873 -0.127428 -0.499252 0.602820 1.197212 0.099094 -0.021282 0.370716 -1.148656 0.049274 -0.590023 -0.512600 0.183803 -0.260413 1.035198 0.095643 -0.685817 -1.049041 -0.846166 -0.762286 -0.129919 0.699041 0.079756 0.688148 -1.620217 -1.052671 0.370308 -0.649563 -0.300987 0.428832 1.167697 -0.360284 0.110239 0.478470 -0.003637 
明 -0.005107 0.249168 0.310398 -0.017096 -0.104991 -0.515341 1.054688 -0.258688 -0.847847 -0.593966 0.237559 -0.496518 -0.749509 -0.292333 -0.249337 0.970352 0.393418 -0.280896 -0.039451 0.804558 -0.105699 0.330713 -0.095258 -0.517908 0.296789 0.193751 -1.072445 -0.681217 0.429100 0.619616 -0.195431 0.131645 -0.621020 -0.526358 -0.059165 0.530620 0.684387 0.473229 0.813109 -0.051059 -0.163957 0.315493 -0.748714 0.188835 0.646774 0.214220 -0.075658 -0.747571 -0.198619 0.130766 
坦 0.964370 -0.774931 0.560466 -0.390036 0.354939 0.026454 0.668804 0.300977 -0.054384 -0.489760 -0.183066 0.171576 -0.237685 -0.137997 0.131584 0.378592 0.725317 -0.087034 0.855525 0.151817 -0.223916 0.494028 -0.505706 -0.760610 -1.062517 -0.175368 -0.739107 -1.071122 -0.333828 -0.714129 -0.137743 0.925071 0.194499 -0.962535 -0.450176 0.485947 -0.253965 0.603334 1.086121 0.239811 -0.416721 0.976708 0.272232 -0.362964 0.018200 0.681737 0.037509 1.087159 -1.179920 -0.604332 
约 -0.332954 0.103531 0.673228 -0.302881 0.466708 0.040868 0.734669 -0.059229 -0.211712 -0.067214 0.963027 -0.055094 0.157449 -0.227778 -0.255424 1.022022 0.721941 0.129346 0.723132 0.339263 0.278706 0.080185 0.804311 -0.799993 -0.423212 0.227801 -0.444997 -0.448952 -0.119076 -0.282042 -0.332368 -0.356663 -0.410642 -0.151604 -0.311744 0.539194 -0.381339 -0.046075 1.300213 -0.281395 0.082298 0.908346 0.088738 0.033005 0.207129 0.037546 -0.011405 0.394990 -0.565032 -1.011266 
东 0.058910 -0.596770 0.662616 -0.237059 0.126669 0.405184 0.350677 -0.156532 -0.885619 -0.026456 0.187127 -0.053434 -0.046209 -0.634163 -0.680011 0.699643 0.483591 -0.304721 -0.156338 0.071986 0.105542 0.114786 0.419951 -0.265232 -0.467333 -0.015410 -1.059315 -0.440439 -0.324896 0.151578 -0.786127 -0.075649 -0.736060 0.495589 -0.007655 0.540098 0.138152 -0.156000 1.068276 0.184087 -0.156032 1.017794 -0.020664 0.007752 0.096003 0.392946 -0.446729 0.071445 -0.714812 -0.783897 
度 -0.145162 -0.301648 0.501896 0.020403 -0.399196 -0.270349 0.528300 0.356023 -0.280114 -0.215745 0.602774 0.434856 -0.435957 0.037136 -0.228312 0.563565 -0.230770 -0.152825 0.411736 0.288572 0.017732 -0.043217 0.411543 -0.825179 -0.520488 0.425174 -0.639162 0.415167 -0.137018 0.160191 0.039866 -0.135413 -0.268512 -0.254437 0.052623 0.615332 0.217715 -0.291655 0.913131 -0.562218 -0.552680 0.519129 0.186887 -0.214381 0.236683 0.128625 0.298972 0.343130 -0.127335 -0.709845 
作 0.236700 -0.143627 0.378030 -0.130250 -0.708386 -0.007290 0.814454 -0.374269 -0.607534 -0.080116 0.070005 0.049325 -0.311614 0.060267 0.028391 0.607029 -0.109003 -0.315077 0.272794 0.223880 0.118320 -0.181842 -0.168059 -0.525244 -0.149964 -0.088205 -0.618427 -0.207239 0.101566 0.273794 -0.225449 -0.003287 -0.278683 -0.185832 0.244380 0.260246 0.693992 0.044511 0.573261 -0.139289 -0.837095 0.709401 -0.355789 -0.402861 0.268748 0.725163 -0.204296 -0.138524 0.173944 -0.305063 
间 -0.031932 -0.080481 0.292390 0.034509 -0.088171 -0.025238 0.695626 -0.017746 0.114103 -0.194011 0.543045 0.170754 -0.316094 0.176218 -0.335600 0.608896 0.288889 -0.447201 0.644232 0.212213 0.046577 0.014947 0.138596 -0.586418 -0.412517 0.168944 -0.716410 -0.439350 0.105520 0.152470 -0.427199 0.362655 -0.203938 -0.203771 -0.353411 0.770701 0.239222 -0.075129 0.971155 -0.068879 -0.517168 0.569399 -0.208760 0.138308 0.371257 0.023776 -0.280619 0.064265 -0.505916 -0.771384 
由 -0.084459 -0.006420 0.261144 -0.090735 -0.017583 -0.182448 0.680023 -0.196853 -0.138684 0.077302 0.175062 0.115184 -0.250445 -0.265398 -0.015083 0.495498 0.051578 -0.231445 0.326808 0.321717 0.098866 -0.048291 0.030723 -0.558909 -0.290441 -0.041539 -0.740192 -0.330588 0.039581 0.387425 -0.334465 -0.053960 -0.552107 -0.158367 -0.247053 0.554628 0.479432 -0.008312 0.848632 -0.333912 -0.376753 0.465290 -0.066043 0.133765 0.370127 0.339576 -0.185302 0.143439 -0.370585 -0.659685 
关 0.292079 -0.334696 0.400317 -0.377755 -0.868040 0.208866 0.864779 -0.285703 -0.653532 0.139641 0.068435 -0.172107 -0.391470 -0.076189 -0.275659 0.297118 0.083957 -0.289402 0.016975 0.224703 0.052276 -0.242779 -0.112669 0.047698 -0.431423 -0.162154 -0.808922 -0.429025 -0.028511 -0.057623 -0.700963 -0.244127 -0.054484 -0.046436 0.157039 0.524053 0.567597 -0.076656 0.724799 -0.146004 -0.863271 0.616091 -0.220247 -0.516405 0.223737 0.582060 0.052017 -0.276214 -0.315595 -0.626121 
9 -0.377647 -0.975702 0.509739 0.092172 -0.416482 -0.210952 0.372600 0.522448 -1.269334 0.662322 0.960607 0.263870 0.061493 -0.561834 -0.431186 0.981754 0.507334 0.330348 0.998631 1.014021 0.123843 0.279577 0.930403 -0.620814 -0.327839 0.451583 -0.611065 -0.184697 -0.477697 0.414688 0.013953 -0.447296 -1.005129 0.223893 -0.591569 -0.493416 0.124820 -0.041416 1.190946 -0.711294 -0.779437 0.816061 0.475289 0.125712 0.696667 0.953375 -0.214560 0.023274 0.319279 0.095249 
内 0.379204 0.124531 0.439330 -0.165452 -0.073922 0.079481 0.542905 0.031796 -0.177161 -0.203872 0.370936 -0.198161 -0.194577 -0.202788 -0.205044 0.534680 0.012036 -0.302742 0.204712 0.026019 0.172694 0.130370 0.071295 -0.449391 -0.374284 0.144186 -0.751530 -0.285021 -0.016800 -0.102116 -0.436978 -0.002133 -0.307578 -0.339296 -0.042046 0.806316 0.358634 0.129541 0.688233 -0.410968 -0.395642 0.413183 -0.225658 -0.145552 0.007108 0.421359 -0.083793 0.374926 -0.766427 -0.737589 
指 0.150328 0.197472 -0.026982 -0.316731 -0.320605 -0.178604 0.643643 -0.042607 -0.306023 0.269713 0.539143 0.062265 -0.593430 0.099931 -0.064671 0.347662 0.195741 -0.116873 0.063043 0.769991 -0.117691 0.107007 -0.056193 -0.652036 -0.258706 0.048247 -0.763956 -0.608414 0.094632 0.530165 -0.182065 0.124155 -0.918937 -0.388395 -0.458271 0.305883 0.356242 0.315201 0.695873 -0.186871 -0.971083 0.053332 -0.853186 0.096016 0.567777 0.745186 -0.157783 -0.479019 -0.107471 -0.243021 
重 0.207404 -0.573336 0.407981 -0.156618 -0.653425 0.114543 0.643206 -0.187090 -0.329854 -0.047109 0.688092 0.383022 -0.652978 -0.137003 -0.287997 0.807704 0.147606 -0.228272 0.058756 0.094347 0.026518 -0.140078 0.041395 -0.481317 -0.449534 0.083204 -0.569472 -0.323129 -0.138558 -0.057324 -0.273034 0.071169 -0.245562 -0.277818 0.433579 0.438086 0.317556 0.035501 0.536001 -0.183423 -0.398991 0.515651 0.069400 -0.412917 0.106257 0.558582 0.033233 0.014163 0.085673 -0.943097 
协 0.426604 -0.040019 0.213854 -0.004450 -0.545969 0.143503 0.907089 -0.395420 -0.430746 -0.064315 -0.087051 0.419742 -0.045228 -0.082372 -0.171173 0.574434 0.485570 -0.413109 0.362031 0.191041 0.045543 -0.173884 -0.214691 -0.041628 -0.365351 -0.467034 -0.803288 -0.076141 0.311411 0.252136 -0.512515 -0.311397 -0.215462 0.023758 0.012318 0.432057 0.525569 0.269766 0.522796 -0.099736 -0.817308 1.312220 -0.421683 -0.498938 -0.261364 0.394048 -0.333289 0.147064 -0.363056 -0.354377 
子 0.221029 0.010294 -0.027946 -0.334431 -0.483791 0.126456 0.876930 -0.002064 -0.382579 0.161465 0.296628 -0.131442 -0.305534 -0.227320 0.352321 0.309956 -0.056676 -0.025962 0.478593 0.088185 0.086070 0.030752 0.063023 -0.793525 0.067038 -0.023306 -0.649622 -0.064794 -0.127003 -0.186449 0.042940 -0.247849 -0.260770 -0.432724 0.176313 0.585109 0.543892 -0.057250 0.660256 -0.967978 -0.569607 0.234690 0.095631 -0.234719 0.096488 0.567679 -0.024720 0.289005 -0.278454 -0.500517 
多 0.168122 -0.112036 0.325911 -0.278385 -0.098003 0.151694 0.488041 0.113765 -0.026623 0.014867 0.548294 0.292047 -0.441397 0.091997 -0.065761 0.693871 0.002362 0.014230 0.389217 -0.025658 0.033399 0.110352 0.113525 -0.784594 -0.613663 0.150644 -0.389225 -0.296876 0.017633 -0.208973 -0.265417 -0.142988 -0.199764 -0.549965 0.005551 0.925612 0.361321 0.180623 0.761548 -0.216605 -0.426540 0.466756 -0.085893 -0.061272 0.450831 0.383097 0.052290 0.384642 -0.350087 -0.714591 
目 -0.073729 -0.207740 0.199267 -0.191091 -0.066614 -0.285275 0.582924 -0.123755 -0.030395 0.059845 0.512916 0.348156 -0.858018 -0.050342 -0.215820 0.592783 -0.055820 -0.302523 0.212882 0.255150 -0.268547 -0.011852 -0.064433 -0.674275 -0.573495 0.167700 -0.838214 -0.478011 -0.033386 0.392985 -0.160446 0.225637 -0.294615 -0.165650 -0.152810 0.413220 0.339159 0.174370 0.462097 -0.192942 -0.671110 0.466466 -0.212942 -0.112578 0.289471 0.581424 0.006361 -0.033620 -0.226727 -0.657713 
受 -0.012790 -0.600194 0.278475 -0.526795 -0.383778 0.263520 0.671046 0.011200 -0.232540 -0.013179 0.671231 0.207934 -0.277126 0.138489 0.121026 0.819181 0.101496 0.066581 0.373062 -0.127479 -0.030438 0.295213 -0.286425 -0.945009 -0.492566 -0.166840 -0.178075 -0.591849 -0.028547 -0.168910 -0.284815 0.023717 -0.248233 -0.384783 0.020776 0.602893 0.237543 0.126592 0.592874 -0.430815 -0.253655 0.242406 -0.024385 -0.223586 0.114128 0.583184 0.044291 0.308727 -0.409121 -0.976059 
西 0.611782 0.265215 0.156471 -0.127785 0.593117 -0.152701 0.423275 -0.152645 -0.631725 -0.141130 0.242020 -0.702515 0.389390 -0.363224 0.344732 1.035724 0.577946 -0.026652 0.314258 0.161798 0.508595 0.617248 0.351752 -1.524737 -0.317932 -0.235253 -1.134658 -0.042218 0.080061 -0.492648 -0.402976 -0.141527 -0.540217 -0.101907 -0.208326 0.032272 -0.053348 0.667143 0.998087 -0.675189 -0.150233 0.625754 0.040331 -0.063464 0.386418 -0.034465 0.039724 0.781716 -1.416280 -0.357811 
c 0.745383 0.569351 0.392943 0.751263 -0.835185 -0.374780 0.904711 0.073277 -0.234819 0.508197 0.579292 0.345099 0.165023 -0.164412 1.196062 0.536433 -0.149801 -0.476176 0.574931 1.100253 0.130473 -0.023209 0.313636 -1.061172 0.061153 -0.596520 -0.540869 0.147712 -0.300814 1.002383 0.123671 -0.654340 -0.967703 -0.770454 -0.680644 -0.140694 0.663459 0.093754 0.692400 -1.597199 -0.982520 0.390269 -0.571455 -0.347933 0.444646 1.145148 -0.397369 0.087838 0.440583 -0.038736 
期 -0.227866 -0.413843 0.474636 0.212800 -0.310783 -0.076171 0.606947 0.016401 -0.116298 0.018817 0.911859 0.431731 -0.465286 0.056668 -0.568537 0.835714 0.001297 -0.354561 0.574707 0.424892 0.084953 0.047773 0.159149 -0.361721 -0.555443 0.571595 -0.510454 -0.093248 0.251279 0.127096 -0.495106 0.155437 -0.320080 -0.156719 -0.144335 0.693783 0.266493 -0.105130 0.812377 -0.095804 -0.491077 0.722275 -0.022795 -0.056627 0.460499 0.297089 0.022861 0.011831 -0.033293 -0.548295 
领 0.132711 -0.290683 0.599649 -0.098811 0.111587 -0.558570 0.799870 0.413837 -0.519968 -0.451547 -0.841124 0.154414 -0.453664 -0.335530 0.117297 0.440403 0.112499 -0.226628 0.990873 -0.090081 -0.139275 0.187207 0.167707 -0.507734 -0.844081 -0.353124 -0.650127 -0.877644 0.007214 -0.109215 -0.045079 1.097215 -0.382126 -0.690188 -0.253147 0.387167 0.057630 0.370978 1.190163 0.412037 -0.687839 0.771554 -0.012787 -0.175913 0.488748 0.313349 -0.138555 0.636159 -1.021909 -0.218400 
定 -0.111283 -0.135159 0.353089 0.087516 -0.583389 -0.310557 0.829380 -0.318228 -0.243174 -0.286119 0.416617 0.341125 -0.664499 -0.429471 -0.459508 0.623240 0.199180 -0.570957 0.196913 0.056299 -0.203718 -0.188389 -0.290816 -0.277739 -0.496994 0.127655 -0.650585 -0.128670 0.163276 0.238572 -0.497581 0.349842 -0.590990 -0.162348 -0.177844 0.494730 0.831854 0.025875 0.310332 0.070757 -0.319897 0.667395 -0.276879 -0.168410 0.400650 0.578541 0.056876 -0.035511 -0.160002 -0.563892 
数 -0.132939 -0.364854 0.355321 -0.162273 -0.301525 0.168751 0.452579 0.164743 -0.068994 0.131616 1.196817 0.488025 -0.437978 0.241545 -0.222900 0.891669 0.141660 0.067783 0.591431 0.343732 0.052596 0.089759 0.468593 -0.612632 -0.590936 0.468300 -0.332040 -0.323713 -0.082901 -0.111785 -0.292238 0.024410 -0.348730 -0.214661 -0.249919 0.600332 0.176042 0.022554 0.948184 -0.100550 -0.511389 0.449588 -0.126622 0.029499 0.409799 0.501166 0.085119 0.169577 0.022053 -0.794729 
位 -0.102612 0.029576 0.258577 -0.111406 0.048765 -0.114019 0.771088 -0.081723 -0.071901 -0.089304 0.174097 0.170617 -0.285180 0.041594 -0.122303 0.485145 0.037621 -0.307339 0.590863 0.121958 0.121603 0.112831 0.052133 -0.685914 -0.315223 0.076290 -0.536711 -0.156366 0.125867 0.066554 -0.070242 0.011670 -0.317607 -0.184101 -0.185389 0.660688 0.559950 0.007156 0.963201 -0.336388 -0.560041 0.516817 -0.016800 0.067940 0.357500 0.290321 -0.169906 0.282945 -0.516876 -0.605773 
. 0.067928 -0.474715 0.494799 0.683376 -0.353515 -0.438822 0.275898 0.543650 -0.482535 0.312005 0.994970 0.439136 0.132232 -0.504784 0.305959 1.089160 0.184891 0.194219 1.022992 0.919040 0.141281 0.341864 0.920499 -0.845029 -0.430666 0.128197 -0.301320 0.127032 -0.294103 0.415220 0.223696 -0.404388 -1.094123 -0.269862 -0.963209 -0.379665 0.155584 0.158157 0.891208 -1.239176 -0.777350 0.471135 0.231746 -0.093320 0.448904 0.893982 -0.051903 0.548311 0.208127 0.362604 
问 -0.093945 -0.755847 0.492552 -0.197260 -0.719267 0.392004 1.017761 -0.565826 -0.399219 -0.761899 0.036554 -0.089272 0.047312 -0.392723 -0.944359 0.728446 0.280709 -0.756422 0.204994 0.151975 -0.079304 0.693095 -0.460433 -0.648725 0.525855 0.320655 -0.644888 -0.136241 -0.194740 0.064619 -0.835971 -0.033290 -0.799291 -0.275501 0.321142 -0.014296 0.627720 -0.036599 0.575508 0.085985 -0.670321 0.674705 -0.280905 -0.703638 0.337919 0.632066 -0.371255 -0.542200 -0.231217 -0.488791 
金 -0.283839 0.087252 0.428626 -0.007191 -0.001493 -0.149089 0.542807 0.059868 -0.153826 -0.266969 0.108364 -0.080268 -0.008139 -0.102399 0.060788 0.968120 -0.040750 0.130076 0.490820 0.135728 0.186987 -0.320117 0.731221 -0.626198 0.114291 -0.103644 -0.397193 0.034768 0.495372 0.379867 0.202238 -0.445659 -0.739263 -0.180108 -0.267098 0.539156 0.628141 -0.074322 0.996063 -0.413962 -0.441985 0.566869 -0.071492 -0.194546 0.672159 0.659719 -0.273488 0.401103 -0.492610 -0.255807 
柯 -0.132732 -0.199046 -0.270320 -0.223061 0.510587 -0.563851 0.967592 -0.802454 -0.359336 -0.429360 0.028359 -0.762044 -0.554732 -1.547091 -0.338562 0.452070 0.011454 -0.328108 0.869728 0.213496 -0.484124 1.067873 -0.408438 -0.000777 -0.142918 -0.662175 -0.287042 -0.116947 -0.044973 0.147312 -0.207232 0.373547 -0.869367 -0.235394 -0.420396 0.305029 0.719636 -0.038600 0.867616 -0.137843 -0.822980 0.844180 0.395079 -0.354815 0.520057 0.642665 -0.495834 0.572387 -1.087240 -0.236468 
共 -0.125922 0.216871 0.408274 -0.105432 0.047524 -0.382720 0.747973 -0.473145 -0.121958 -0.253322 0.046680 -0.143805 -0.159048 -0.160425 -0.396855 0.706110 -0.010548 -0.386792 0.504034 0.069583 0.187717 -0.041614 -0.008139 -0.524343 0.009228 -0.127915 -0.628044 -0.141854 0.188089 0.291474 -0.204730 0.036804 -0.516541 -0.046771 -0.114440 0.745065 0.577167 -0.128550 0.958960 -0.090642 -0.287579 0.561206 -0.105695 -0.013962 0.384270 0.348666 -0.307533 0.147012 -0.561395 -0.807318 
提 0.265676 0.176924 0.138217 -0.030236 -0.547122 -0.374731 0.668509 -0.357486 -0.053513 0.081158 0.355528 0.338764 -0.291732 0.227716 0.086704 0.307136 0.130230 -0.208151 0.238154 0.365997 0.073020 -0.130281 -0.445026 -0.438475 -0.462256 0.083979 -0.711749 -0.004359 0.177834 0.060964 -0.146898 -0.075962 -0.660709 -0.433592 -0.288023 0.593739 0.530099 0.094798 0.596487 -0.300837 -0.835254 0.280403 -0.606985 -0.598996 0.032124 0.741274 -0.041393 0.011783 -0.055384 -0.540078 
持 0.450517 -0.679118 0.659920 -0.206894 -0.079219 -0.319649 0.870250 -0.301424 0.327872 -0.585356 0.538660 0.385431 -0.452802 0.379876 0.144516 1.273467 -0.043982 -0.193434 0.107305 -0.184636 0.189462 0.192224 0.093531 -0.288056 -0.492435 -0.020933 -0.448139 -0.284446 0.224156 0.170999 -0.281406 0.094033 -0.801554 -0.052511 -0.285742 0.354401 0.320043 0.352682 0.931845 0.372776 -0.185695 0.703408 -0.589797 -0.205670 -0.404556 0.829884 -0.015654 0.523654 0.210867 -0.658240 
希 -0.297816 0.053824 0.410423 0.106070 0.091021 -0.313196 0.599062 -0.680548 0.092079 -0.239941 -0.324945 0.364545 -0.605376 -0.974102 -0.175718 0.952257 -0.270888 -0.320749 0.134451 0.479620 -0.100456 0.643355 -0.050699 -0.238506 -0.798514 -0.077497 -1.030433 -0.100474 -0.093636 0.456507 -0.414778 0.609496 -0.848921 -0.299543 -0.289533 0.627058 0.348241 0.106944 0.349970 -0.223952 -0.588079 0.593860 -0.245766 -0.171917 -0.035222 0.667926 -0.432838 0.317861 -0.048280 -0.055127 
次 -0.287579 0.098912 0.227005 -0.162850 -0.141908 -0.115936 0.793895 0.025060 0.009582 -0.159217 0.241402 0.354189 -0.485545 -0.007707 -0.186776 0.575970 -0.009194 -0.351748 0.654719 0.150127 0.253164 -0.051071 -0.175937 -0.665522 -0.393103 0.058411 -0.701340 0.149381 0.151885 0.098468 -0.210975 -0.005115 -0.029097 -0.082332 -0.017953 0.784363 0.609026 -0.238104 0.977660 -0.413626 -0.482744 0.538878 -0.008943 0.083602 0.421571 -0.023865 -0.093990 0.219008 -0.368740 -0.748874 
市 0.322257 0.437765 0.432141 0.482452 -0.140873 0.173154 0.485895 -0.112362 -0.135240 0.179744 0.850793 0.340850 -0.164624 -0.135562 0.244638 0.364685 0.170386 -0.135292 0.195063 0.186198 0.342111 -0.240306 0.378743 -0.515058 -0.202115 -0.041008 -0.795412 -0.134735 -0.194062 0.343618 -0.207667 -0.035314 -0.507229 -0.011900 -0.240083 0.899600 0.127167 0.039655 1.080508 -0.529067 -0.455552 0.457743 -0.009183 -0.026491 0.233072 0.129490 -0.062521 0.420087 -0.293745 -0.872516 
车 0.911617 0.340709 0.469368 0.629680 -0.184466 0.124625 0.458767 0.087618 -0.765563 0.121321 1.146795 0.310721 0.072807 0.131496 1.000595 0.415448 -0.299671 0.186674 0.897826 -0.099294 -0.408661 -0.255356 0.305161 -0.412749 0.778317 0.411984 -1.075049 0.020856 -0.021167 0.327683 0.362118 -0.696527 -0.441075 -0.059572 0.286316 1.147276 -0.002242 0.325834 1.294993 -0.921195 -0.538417 0.826846 -0.051397 -0.640917 -0.229108 0.160676 -0.027561 -0.178102 -0.410679 -0.591135 
当 -0.142025 -0.097817 0.343897 -0.149771 -0.139241 -0.060219 0.548191 -0.053208 0.089952 -0.309041 0.150963 0.078141 -0.410515 -0.411153 -0.282116 0.642430 0.081775 -0.157028 0.485433 0.157104 -0.171857 0.069302 -0.130217 -0.547587 -0.505642 0.003967 -0.597194 -0.198538 -0.067434 -0.035642 -0.439294 0.316746 -0.518943 -0.276397 -0.246590 0.567632 0.458764 -0.048388 0.803285 -0.249023 -0.476270 0.364829 -0.059983 -0.273336 0.275281 0.430770 -0.048368 0.205336 -0.532054 -0.569593 
举 -0.367917 0.068086 0.170017 0.100933 -0.089766 -0.471590 0.967549 -0.400523 -0.016326 -0.655016 -0.137258 0.103679 -0.225289 -0.388786 -0.519500 0.785784 0.291002 -0.497186 1.015243 0.124844 0.082949 -0.327134 -0.362522 -0.273234 -0.458016 -0.544148 -0.628583 -0.244647 0.359551 0.379674 -0.150244 0.341105 -0.133634 -0.251898 -0.285661 0.595318 0.278825 -0.110156 0.884477 -0.295072 -0.379081 0.879966 -0.085326 -0.266404 0.018447 0.050877 -0.323617 0.376748 -1.095664 -0.500780 
维 0.093391 -0.397953 0.533623 -0.110940 -0.287757 -1.070900 1.149992 -0.082572 -0.377760 -0.951754 -0.447803 0.339494 -0.336395 -1.087750 -0.351711 0.825443 -0.402404 -0.212297 -0.010467 -0.178808 0.315290 0.047673 0.488010 -0.686922 -0.474257 -0.817473 -0.419723 0.086228 -0.366677 -0.451640 0.013033 0.186125 -1.025319 -0.100461 -1.172156 0.739263 -0.077894 0.202698 0.435234 -0.468300 0.219490 0.133953 -0.648512 -0.258772 0.681961 1.328280 0.417412 1.031659 -0.354195 -0.164962 
